{"learner":{"attributes":{"scikit_learn":"{\"_estimator_type\": \"classifier\"}"},"feature_names":["age","pclass","fare","parch","sibsp","label_encoder_embarked_","label_encoder_sex_"],"feature_types":["float","int","float","int","int","int","int"],"gradient_booster":{"model":{"gbtree_model_param":{"num_parallel_tree":"1","num_trees":"100"},"iteration_indptr":[0,1,2,3,4,5,6,7,8,9,10,11,12,13,14,15,16,17,18,19,20,21,22,23,24,25,26,27,28,29,30,31,32,33,34,35,36,37,38,39,40,41,42,43,44,45,46,47,48,49,50,51,52,53,54,55,56,57,58,59,60,61,62,63,64,65,66,67,68,69,70,71,72,73,74,75,76,77,78,79,80,81,82,83,84,85,86,87,88,89,90,91,92,93,94,95,96,97,98,99,100],"tree_info":[0,0,0,0,0,0,0,0,0,0,0,0,0,0,0,0,0,0,0,0,0,0,0,0,0,0,0,0,0,0,0,0,0,0,0,0,0,0,0,0,0,0,0,0,0,0,0,0,0,0,0,0,0,0,0,0,0,0,0,0,0,0,0,0,0,0,0,0,0,0,0,0,0,0,0,0,0,0,0,0,0,0,0,0,0,0,0,0,0,0,0,0,0,0,0,0,0,0,0,0],"trees":[{"base_weights":[-1.0886483E-2,1.5649804E0,-8.425308E-1,7.1334696E-1,5.940304E-1,1.0251993E0,-9.39121E-1,1.003967E0,-3.0620718E-1,5.993676E-1,-2.1010728E-1,-2.0554373E-1,-1.1481564E0,1.0992295E0,-1.2213396E-1,5.191727E-1,-3.9080268E-1,-1.1722598E0,-2.300699E-1,8.3848727E-1,4.6160135E-1,-2.300699E-1,3.4746152E-1,-3.2692495E-1,-2.4932663E-1,-7.95744E-1,-3.6375716E-1,1.5380272E-1,-2.601023E-1,4.2208496E-1,-4.741983E-2,1.5834374E-2,-1.2213396E-1,1.0908277E-1,-1.6130541E-1,-2.9444385E-1,4.0921107E-2],"categories":[],"categories_nodes":[],"categories_segments":[],"categories_sizes":[],"default_left":[0,0,0,0,0,0,0,0,0,0,0,0,0,0,0,0,0,0,0,0,0,0,0,0,0,0,0,0,0,0,0,0,0,0,0,0,0],"id":0,"left_children":[1,3,5,-1,7,9,11,13,-1,-1,-1,15,17,19,-1,21,23,25,27,29,-1,31,-1,-1,33,35,-1,-1,-1,-1,-1,-1,-1,-1,-1,-1,-1],"loss_changes":[2.2211021E2,4.47939E1,2.0974152E1,0E0,1.9566471E1,1.1356612E1,1.6017273E1,3.5182762E0,0E0,0E0,0E0,3.5222263E0,1.5508347E0,1.1927757E0,0E0,2.8819869E0,1.7317276E0,2.4673462E-1,2.0287647E0,9.171778E0,0E0,1.8918669E-1,0E0,0E0,3.4027948E0,1.9743114E0,0E0,0E0,0E0,0E0,0E0,0E0,0E0,0E0,0E0,0E0,0E0],"parents":[2147483647,0,0,1,1,2,2,4,4,5,5,6,6,7,7,11,11,12,12,13,13,15,15,16,16,17,17,18,18,19,19,21,21,24,24,25,25],"right_children":[2,4,6,-1,8,10,12,14,-1,-1,-1,16,18,20,-1,22,24,26,28,30,-1,32,-1,-1,34,36,-1,-1,-1,-1,-1,-1,-1,-1,-1,-1,-1],"split_conditions":[1E0,3E0,7E0,7.1334696E-1,2.345E1,2E0,2E0,3.65E1,-3.0620718E-1,5.993676E-1,-2.1010728E-1,2.85E1,4.71E1,1.55E1,-1.2213396E-1,2.5E1,2.625E1,1E0,5.7E1,8.05E0,4.6160135E-1,2E1,3.4746152E-1,-3.2692495E-1,3.06958E1,1E0,-3.6375716E-1,1.5380272E-1,-2.601023E-1,4.2208496E-1,-4.741983E-2,1.5834374E-2,-1.2213396E-1,1.0908277E-1,-1.6130541E-1,-2.9444385E-1,4.0921107E-2],"split_indices":[6,1,0,0,2,4,1,0,0,0,0,0,2,2,0,0,2,5,2,2,0,0,0,0,2,3,0,0,0,0,0,0,0,0,0,0,0],"split_type":[0,0,0,0,0,0,0,0,0,0,0,0,0,0,0,0,0,0,0,0,0,0,0,0,0,0,0,0,0,0,0,0,0,0,0,0,0],"sum_hessian":[1.6747116E2,5.7546192E1,1.0992497E2,3.0534714E1,2.7011478E1,4.932531E0,1.0499244E2,2.1844065E1,5.167413E0,3.0534713E0,1.8790593E0,2.3723124E1,8.126932E1,2.0669653E1,1.174412E0,4.4627657E0,1.9260359E1,7.8920494E1,2.348824E0,1.4797592E1,5.8720603E0,2.348824E0,2.1139417E0,2.1139417E0,1.7146416E1,9.630179E0,6.929031E1,1.174412E0,1.174412E0,9.160414E0,5.637178E0,1.174412E0,1.174412E0,5.4022956E0,1.1744121E1,7.986002E0,1.644177E0],"tree_param":{"num_deleted":"0","num_feature":"7","num_nodes":"37","size_leaf_vector":"1"}},{"base_weights":[-2.2635343E-2,1.0556235E0,-6.625057E-1,4.7217718E-1,4.131387E-1,7.5744486E-1,-7.4368906E-1,6.9682777E-1,-8.401725E-1,4.373174E-1,-1.770784E-1,-1.5708959E-1,-9.2620975E-1,8.344011E-1,-1.5561448E-1,-7.858819E-2,-2.7504703E-1,4.9305907E-3,-7.254509E-1,-9.4676393E-1,-2.0009215E-1,1.0932621E0,4.3494308E-1,-2.2815776E-1,2.0679659E-1,-1.8892021E-1,3.1081545E-1,-5.1354382E-2,-2.7371174E-1,-8.600915E-1,-3.75689E-1,1.2622152E-1,-2.289321E-1,8.006716E-2,3.4969094E-1,-6.3156046E-4,3.066178E-1,1.7478848E-2,-2.45085E-1,-2.7197158E-1,7.258164E-2],"categories":[],"categories_nodes":[],"categories_segments":[],"categories_sizes":[],"default_left":[0,0,0,0,0,0,0,0,0,0,0,0,0,0,0,0,0,0,0,0,0,0,0,0,0,0,0,0,0,0,0,0,0,0,0,0,0,0,0,0,0],"id":1,"left_children":[1,3,5,-1,7,9,11,13,15,-1,-1,17,19,21,23,-1,-1,25,27,29,31,33,35,-1,-1,37,-1,-1,-1,39,-1,-1,-1,-1,-1,-1,-1,-1,-1,-1,-1],"loss_changes":[1.1209933E2,1.9502144E1,1.231506E1,0E0,1.067512E1,6.5312757E0,1.0233051E1,2.9076347E0,1.2060642E-2,0E0,0E0,2.2328053E0,9.10923E-1,1.6496687E0,2.637339E0,0E0,0E0,4.159681E0,4.008844E-1,8.1446075E-1,1.4736755E0,3.9524174E-1,2.501958E0,0E0,0E0,2.7702878E0,0E0,0E0,0E0,3.233162E0,0E0,0E0,0E0,0E0,0E0,0E0,0E0,0E0,0E0,0E0,0E0],"parents":[2147483647,0,0,1,1,2,2,4,4,5,5,6,6,7,7,8,8,11,11,12,12,13,13,14,14,17,17,18,18,19,19,20,20,21,21,22,22,25,25,29,29],"right_children":[2,4,6,-1,8,10,12,14,16,-1,-1,18,20,22,24,-1,-1,26,28,30,32,34,36,-1,-1,38,-1,-1,-1,40,-1,-1,-1,-1,-1,-1,-1,-1,-1,-1,-1],"split_conditions":[1E0,3E0,7E0,4.7217718E-1,2.345E1,2E0,2E0,3.05E1,2.55875E1,4.373174E-1,-1.770784E-1,5.3E1,4.71E1,2E0,1.555E1,-7.858819E-2,-2.7504703E-1,4.8E1,1E0,1.6E1,5.7E1,7.65E0,1.11333E1,-2.2815776E-1,2.0679659E-1,3.65E1,3.1081545E-1,-5.1354382E-2,-2.7371174E-1,1.52458E1,-3.75689E-1,1.2622152E-1,-2.289321E-1,8.006716E-2,3.4969094E-1,-6.3156046E-4,3.066178E-1,1.7478848E-2,-2.45085E-1,-2.7197158E-1,7.258164E-2],"split_indices":[6,1,0,0,2,4,1,0,2,0,0,0,2,5,2,0,0,0,5,2,2,2,2,0,0,0,0,0,0,2,0,0,0,0,0,0,0,0,0,0,0],"split_type":[0,0,0,0,0,0,0,0,0,0,0,0,0,0,0,0,0,0,0,0,0,0,0,0,0,0,0,0,0,0,0,0,0,0,0,0,0,0,0,0,0],"sum_hessian":[1.604619E2,5.951768E1,1.0094422E2,3.2140114E1,2.7377567E1,5.0087E0,9.5935524E1,2.268646E1,4.6911073E0,3.2423255E0,1.7663741E0,2.3208113E1,7.272741E1,1.9552155E1,3.1343057E0,1.0661607E0,3.6249464E0,1.8831287E1,4.376825E0,7.042988E1,2.2975278E0,1.081005E1,8.742105E0,1.8848183E0,1.2494874E0,1.6538778E1,2.2925098E0,1.5869397E0,2.7898853E0,5.7837738E1,1.2592144E1,1.2128431E0,1.0846847E0,1.2480011E0,9.562049E0,5.582739E0,3.1593664E0,1.2518797E1,4.019981E0,5.5667225E1,2.170513E0],"tree_param":{"num_deleted":"0","num_feature":"7","num_nodes":"41","size_leaf_vector":"1"}},{"base_weights":[-2.1444986E-2,8.1052655E-1,-5.3192645E-1,1.2545748E0,3.0386713E-1,4.812758E-1,-6.167785E-1,9.611192E-2,3.8386512E-1,5.17454E-1,-2.1492547E-1,4.0909252E-1,-2.2481398E-1,-1.535107E-1,-7.794369E-1,3.2817453E-1,3.171259E-1,-2.7156106E-1,-4.883233E-2,-6.797291E-1,-1.0090858E0,-5.702511E-1,4.985918E-1,4.372848E-1,-2.5905845E-1,-7.60153E-1,2.2714879E-1,-3.150302E-1,-6.509935E-2,1.633889E-3,-2.896797E-1,1.9466308E-1,-3.5972066E-2,2.4987803E-1,-1.6563168E-1,6.8383E-2,-1.854111E-1,-1.2319326E-1,-2.5483868E-1,1.6625582E-1,-5.658079E-2],"categories":[],"categories_nodes":[],"categories_segments":[],"categories_sizes":[],"default_left":[0,0,0,0,0,0,0,0,0,0,0,0,0,0,0,0,0,0,0,0,0,0,0,0,0,0,0,0,0,0,0,0,0,0,0,0,0,0,0,0,0],"id":2,"left_children":[1,3,5,7,9,11,13,-1,-1,15,-1,-1,-1,17,19,-1,21,-1,23,25,27,29,31,33,35,37,39,-1,-1,-1,-1,-1,-1,-1,-1,-1,-1,-1,-1,-1,-1],"loss_changes":[6.3493263E1,1.2410957E1,8.260048E0,2.8961182E-1,6.445607E0,9.404199E0,6.3537445E0,0E0,0E0,2.3821282E0,0E0,0E0,0E0,1.8103868E0,7.6436234E-1,0E0,3.3351097E0,0E0,2.3355548E0,3.6170902E0,3.2800102E-1,8.4351826E-1,1.5894308E0,3.1753135E0,2.9045725E0,1.0124073E0,7.3226196E-1,0E0,0E0,0E0,0E0,0E0,0E0,0E0,0E0,0E0,0E0,0E0,0E0,0E0,0E0],"parents":[2147483647,0,0,1,1,2,2,3,3,4,4,5,5,6,6,9,9,13,13,14,14,16,16,18,18,19,19,20,20,21,21,22,22,23,23,24,24,25,25,26,26],"right_children":[2,4,6,8,10,12,14,-1,-1,16,-1,-1,-1,18,20,-1,22,-1,24,26,28,30,32,34,36,38,40,-1,-1,-1,-1,-1,-1,-1,-1,-1,-1,-1,-1,-1,-1],"split_conditions":[1E0,3E0,1.3E1,5E0,2.345E1,2E0,2E0,9.611192E-2,3.8386512E-1,1.8E1,-2.1492547E-1,4.0909252E-1,-2.2481398E-1,2.625E1,3.25E1,3.2817453E-1,2.2E1,-2.7156106E-1,3.06958E1,3.1E1,6.1E1,7.875E0,3.05E1,5.3E1,1E0,2E0,8.1125E0,-3.150302E-1,-6.509935E-2,1.633889E-3,-2.896797E-1,1.9466308E-1,-3.5972066E-2,2.4987803E-1,-1.6563168E-1,6.8383E-2,-1.854111E-1,-1.2319326E-1,-2.5483868E-1,1.6625582E-1,-5.658079E-2],"split_indices":[6,1,0,0,2,4,1,0,0,0,0,0,0,2,0,0,0,0,2,0,0,2,0,0,5,5,2,0,0,0,0,0,0,0,0,0,0,0,0,0,0],"split_type":[0,0,0,0,0,0,0,0,0,0,0,0,0,0,0,0,0,0,0,0,0,0,0,0,0,0,0,0,0,0,0,0,0,0,0,0,0,0,0,0,0],"sum_hessian":[1.4748418E2,5.585886E1,9.162532E1,2.8982098E1,2.6876762E1,6.719312E0,8.4906006E1,1.114696E0,2.7867401E1,2.2631838E1,4.244924E0,3.8504927E0,2.8688195E0,2.256951E1,6.2336494E1,4.686223E0,1.7945616E1,1.8239926E0,2.0745518E1,4.6226124E1,1.611037E1,2.6830254E0,1.526259E1,5.9370017E0,1.4808516E1,4.2609234E1,3.6168892E0,1.5007534E1,1.1028376E0,1.493885E0,1.1891403E0,1.223948E1,3.0231097E0,4.3540325E0,1.582969E0,6.438654E0,8.369862E0,9.811242E0,3.2797993E1,1.8380625E0,1.7788266E0],"tree_param":{"num_deleted":"0","num_feature":"7","num_nodes":"41","size_leaf_vector":"1"}},{"base_weights":[-2.131307E-2,6.443467E-1,-4.3181688E-1,1.0649577E0,2.1780568E-1,-2.4566634E-1,-2.6375896E-1,8.260227E-2,3.2645068E-1,3.6624452E-1,-7.1465343E-1,3.9440158E-1,-3.4547853E-1,3.394065E-1,2.4064572E-1,-4.2778045E-2,-2.57382E-1,3.3550787E-1,-1.9320565E-1,-7.1499534E-2,-5.1591337E-1,6.33048E-1,-1.21585034E-1,6.3764155E-2,-5.456889E-1,-4.704338E-3,-6.3692415E-1,2.5549442E-1,1.3195266E-1,-1.9480334E-1,1.4207304E-1,-2.7263958E-2,2.2356215E-1,-4.821079E-2,-2.0350337E-1,2.2788437E-1,-7.897901E-2,-2.0572332E-1,-1.1306706E-2],"categories":[],"categories_nodes":[],"categories_segments":[],"categories_sizes":[],"default_left":[0,0,0,0,0,0,0,0,0,0,0,0,0,0,0,0,0,0,0,0,0,0,0,0,0,0,0,0,0,0,0,0,0,0,0,0,0,0,0],"id":3,"left_children":[1,3,5,7,9,-1,11,-1,-1,13,15,17,19,-1,21,-1,-1,-1,-1,23,25,27,29,31,33,35,37,-1,-1,-1,-1,-1,-1,-1,-1,-1,-1,-1,-1],"loss_changes":[3.7178864E1,9.081579E0,5.2565613E0,1.7472458E-1,4.0032835E0,0E0,3.370564E0,0E0,0E0,2.0322108E0,2.0972419E-1,6.0644255E0,2.4858704E0,0E0,3.1854763E0,0E0,0E0,0E0,0E0,1.4381908E0,2.0474548E0,7.5572014E-2,4.1429296E0,1.9560748E0,1.4433563E-1,1.6528383E0,7.5800705E-1,0E0,0E0,0E0,0E0,0E0,0E0,0E0,0E0,0E0,0E0,0E0,0E0],"parents":[2147483647,0,0,1,1,2,2,3,3,4,4,6,6,9,9,10,10,11,11,12,12,14,14,19,19,20,20,21,21,22,22,23,23,24,24,25,25,26,26],"right_children":[2,4,6,8,10,-1,12,-1,-1,14,16,18,20,-1,22,-1,-1,-1,-1,24,26,28,30,32,34,36,38,-1,-1,-1,-1,-1,-1,-1,-1,-1,-1,-1,-1],"split_conditions":[1E0,3E0,7.925E0,5E0,2.54667E1,-2.4566634E-1,1.3E1,8.260227E-2,3.2645068E-1,6E0,1E1,2E0,2E0,3.394065E-1,8.05E0,-4.2778045E-2,-2.57382E-1,3.3550787E-1,-1.9320565E-1,5.3E1,8.1375E0,7.7417E0,1.55E1,4.8E1,1E0,2.05E1,4.71E1,2.5549442E-1,1.3195266E-1,-1.9480334E-1,1.4207304E-1,-2.7263958E-2,2.2356215E-1,-4.821079E-2,-2.0350337E-1,2.2788437E-1,-7.897901E-2,-2.0572332E-1,-1.1306706E-2],"split_indices":[6,1,2,0,2,0,0,0,0,0,0,4,1,0,2,0,0,0,0,0,2,2,2,0,5,0,2,0,0,0,0,0,0,0,0,0,0,0,0],"split_type":[0,0,0,0,0,0,0,0,0,0,0,0,0,0,0,0,0,0,0,0,0,0,0,0,0,0,0,0,0,0,0,0,0,0,0,0,0,0,0],"sum_hessian":[1.3404054E2,5.091262E1,8.312792E1,2.4880901E1,2.603172E1,2.399349E1,5.913443E1,1.0778017E0,2.38031E1,2.298064E1,3.051078E0,6.1087713E0,5.3025658E1,2.1113348E0,2.0869307E1,1.010781E0,2.0402973E0,3.5540233E0,2.554748E0,2.0879984E1,3.2145676E1,9.658585E0,1.1210722E1,1.6919254E1,3.960729E0,6.351728E0,2.5793945E1,2.9325778E0,6.726007E0,5.893566E0,5.3171554E0,1.4496183E1,2.423071E0,1.5817329E0,2.378996E0,1.1157157E0,5.2360125E0,2.371731E1,2.0766363E0],"tree_param":{"num_deleted":"0","num_feature":"7","num_nodes":"39","size_leaf_vector":"1"}},{"base_weights":[-1.2694539E-2,5.290327E-1,-3.4330273E-1,9.2627937E-1,1.7298143E-1,-6.929924E-1,-2.0272242E-1,9.8452526E-1,3.5549214E-1,3.1629515E-1,4.5261838E-2,-5.617562E-1,-2.931537E-1,4.6687555E-1,-2.5676128E-1,3.2867008E-1,6.0204065E-1,-1.0608243E-1,2.3003033E-1,4.930481E-1,-2.8322476E-1,-8.7076986E-1,-3.4040895E-1,2.6416084E-1,-9.016296E-2,-3.431125E-2,-4.0080673E-1,-5.257973E-3,2.8498638E-1,2.0577955E-1,3.3143994E-1,-2.9164198E-1,2.1078374E-2,-7.137076E-2,-2.9385433E-1,2.769894E-1,-6.0706466E-1,3.6679888E-1,-1.6075645E-1,-1.8207638E-1,-7.9153824E-1,-8.628599E-2,7.7892E-2,1.8394165E-1,-2.6575733E-2,-2.5329792E-1,6.2260676E-2,2.2190422E-1,-9.758718E-2,-2.1675876E-1,-4.9650647E-2,2.8936535E-1,-9.298301E-2,-1.9047973E-1,2.0427883E-2,-8.581382E-2,2.2208153E-1,-2.885179E-1,-9.046205E-3],"categories":[],"categories_nodes":[],"categories_segments":[],"categories_sizes":[],"default_left":[0,0,0,0,0,0,0,0,0,0,0,0,0,0,0,0,0,0,0,0,0,0,0,0,0,0,0,0,0,0,0,0,0,0,0,0,0,0,0,0,0,0,0,0,0,0,0,0,0,0,0,0,0,0,0,0,0,0,0],"id":4,"left_children":[1,3,5,7,9,11,13,15,17,-1,19,21,-1,23,25,-1,27,-1,-1,29,31,33,35,-1,-1,37,39,41,-1,-1,43,-1,45,-1,-1,47,49,51,53,55,57,-1,-1,-1,-1,-1,-1,-1,-1,-1,-1,-1,-1,-1,-1,-1,-1,-1,-1],"loss_changes":[2.2175566E1,6.4782486E0,3.6383095E0,3.799076E-1,2.8767374E0,2.576828E-1,2.1548955E0,1.6252518E-1,1.3204502E0,0E0,3.6311407E0,8.7646246E-1,0E0,1.7105231E0,1.6744506E0,0E0,1.3942108E0,0E0,0E0,9.7129345E-2,3.024105E0,2.1532059E-1,2.0832958E0,0E0,0E0,1.1646746E0,2.5809069E0,3.281865E-1,0E0,0E0,9.5341283E-1,0E0,1.9367473E0,0E0,0E0,1.4097624E0,3.1059694E-1,2.5359735E0,1.9173872E0,2.2965705E0,1.4150748E0,0E0,0E0,0E0,0E0,0E0,0E0,0E0,0E0,0E0,0E0,0E0,0E0,0E0,0E0,0E0,0E0,0E0,0E0],"parents":[2147483647,0,0,1,1,2,2,3,3,4,4,5,5,6,6,7,7,8,8,10,10,11,11,13,13,14,14,16,16,19,19,20,20,21,21,22,22,25,25,26,26,27,27,30,30,32,32,35,35,36,36,37,37,38,38,39,39,40,40],"right_children":[2,4,6,8,10,12,14,16,18,-1,20,22,-1,24,26,-1,28,-1,-1,30,32,34,36,-1,-1,38,40,42,-1,-1,44,-1,46,-1,-1,48,50,52,54,56,58,-1,-1,-1,-1,-1,-1,-1,-1,-1,-1,-1,-1,-1,-1,-1,-1,-1,-1],"split_conditions":[1E0,3E0,7.925E0,1.5155E2,6E0,3.25E1,7E0,3.65E1,2.113375E2,3.1629515E-1,8.05E0,2.5E1,-2.931537E-1,2E0,2E0,3.2867008E-1,2.9E1,-1.0608243E-1,2.3003033E-1,7.7417E0,2.3E1,7.2292E0,2.9699118E1,2.6416084E-1,-9.016296E-2,2.85E1,1.6E1,4.5E1,2.8498638E-1,2.0577955E-1,2E0,-2.9164198E-1,9.4833E0,-7.137076E-2,-2.9385433E-1,7.7958E0,7.775E0,7.72875E1,3.05E1,1E0,4.71E1,-8.628599E-2,7.7892E-2,1.8394165E-1,-2.6575733E-2,-2.5329792E-1,6.2260676E-2,2.2190422E-1,-9.758718E-2,-2.1675876E-1,-4.9650647E-2,2.8936535E-1,-9.298301E-2,-1.9047973E-1,2.0427883E-2,-8.581382E-2,2.2208153E-1,-2.885179E-1,-9.046205E-3],"split_indices":[6,1,2,2,0,0,0,0,2,0,2,0,0,4,1,0,2,0,0,2,0,2,0,0,0,0,2,0,0,0,5,0,2,0,0,2,2,2,0,3,2,0,0,0,0,0,0,0,0,0,0,0,0,0,0,0,0,0,0],"split_type":[0,0,0,0,0,0,0,0,0,0,0,0,0,0,0,0,0,0,0,0,0,0,0,0,0,0,0,0,0,0,0,0,0,0,0,0,0,0,0,0,0,0,0,0,0,0,0,0,0,0,0,0,0,0,0,0,0,0,0],"sum_hessian":[1.2180298E2,4.5934895E1,7.586808E1,2.0954458E1,2.4980438E1,2.062771E1,5.524037E1,1.8356424E1,2.5980341E0,2.2435777E0,2.273686E1,1.614755E1,4.4801583E0,3.5546715E0,5.16857E1,1.2781423E1,5.5750012E0,1.0051765E0,1.5928576E0,9.40931E0,1.332755E1,5.5147223E0,1.0632829E1,2.2139108E0,1.3407607E0,2.0800926E1,3.0884773E1,2.3892863E0,3.1857152E0,2.8104959E0,6.5988145E0,3.4109104E0,9.91664E0,1.2760626E0,4.2386594E0,3.1954732E0,7.437356E0,4.5299964E0,1.627093E1,2.0740366E1,1.0144406E1,1.1150002E0,1.274286E0,3.6746023E0,2.9242122E0,1.1324298E0,8.78421E0,1.678138E0,1.5173352E0,5.3912845E0,2.0460713E0,2.1795552E0,2.3504412E0,4.7189045E0,1.1552025E1,1.9259277E1,1.4810879E0,8.0760765E0,2.0683298E0],"tree_param":{"num_deleted":"0","num_feature":"7","num_nodes":"59","size_leaf_vector":"1"}},{"base_weights":[-9.2077125E-3,4.3881223E-1,-2.7747032E-1,8.2154024E-1,1.3334806E-1,-6.0311675E-1,-1.5416504E-1,8.79923E-1,3.044955E-1,2.5316426E-1,-6.2910074E-1,-2.1046409E-1,-6.6937554E-1,3.425619E-1,-2.113245E-1,5.7662344E-1,3.1711677E-1,2.141079E-1,-9.2660055E-2,2.541562E-1,1.640903E-1,-2.3097518E-1,-4.0905006E-2,7.30544E-2,-1.4022931E-1,-2.7441758E-1,-5.186677E-1,2.7115095E-1,-1.4418714E-1,-5.011195E-1,-1.2746316E-1,2.4431752E-1,-4.734972E-3,3.96489E-1,-5.1264968E-2,6.890469E-2,-6.785998E-1,1.0442227E-1,-6.974995E-1,3.5930392E-1,-1.839601E-1,7.882161E-2,-8.736212E-2,7.333626E-2,2.0935135E-1,-2.2300808E-1,6.8775915E-2,-2.787001E-1,-1.1259157E-1,2.5589164E-2,-2.7148256E-1,-9.311367E-2,2.4587655E-1,-7.142996E-2,1.705887E-1],"categories":[],"categories_nodes":[],"categories_segments":[],"categories_sizes":[],"default_left":[0,0,0,0,0,0,0,0,0,0,0,0,0,0,0,0,0,0,0,0,0,0,0,0,0,0,0,0,0,0,0,0,0,0,0,0,0,0,0,0,0,0,0,0,0,0,0,0,0,0,0,0,0,0,0],"id":5,"left_children":[1,3,5,7,9,11,13,15,17,19,21,23,25,27,29,31,-1,-1,-1,-1,33,-1,-1,-1,-1,-1,35,-1,-1,37,39,-1,41,43,45,-1,47,-1,49,51,53,-1,-1,-1,-1,-1,-1,-1,-1,-1,-1,-1,-1,-1,-1],"loss_changes":[1.37574215E1,4.9033194E0,2.7810616E0,3.007307E-1,2.446746E0,3.6163187E-1,1.584602E0,2.7143955E-1,1.0839537E0,1.0436909E0,1.508869E-1,6.093126E-1,1.19678974E-1,3.150177E0,1.1119523E0,1.1436899E0,0E0,0E0,0E0,0E0,1.0552176E0,0E0,0E0,0E0,0E0,0E0,1.6235771E0,0E0,0E0,1.9967513E0,1.1349213E0,0E0,3.3609655E-1,2.9030907E-1,2.425993E0,0E0,4.3788147E-1,0E0,1.5183759E0,1.6046219E0,1.5812151E0,0E0,0E0,0E0,0E0,0E0,0E0,0E0,0E0,0E0,0E0,0E0,0E0,0E0,0E0],"parents":[2147483647,0,0,1,1,2,2,3,3,4,4,5,5,6,6,7,7,8,8,9,9,10,10,11,11,12,12,13,13,14,14,15,15,20,20,26,26,29,29,30,30,32,32,33,33,34,34,36,36,38,38,39,39,40,40],"right_children":[2,4,6,8,10,12,14,16,18,20,22,24,26,28,30,32,-1,-1,-1,-1,34,-1,-1,-1,-1,-1,36,-1,-1,38,40,-1,42,44,46,-1,48,-1,50,52,54,-1,-1,-1,-1,-1,-1,-1,-1,-1,-1,-1,-1,-1,-1],"split_conditions":[1E0,3E0,7.925E0,1.5155E2,2.54667E1,1E0,1.3E1,2.9E1,1E0,6E0,4E0,2.9699118E1,2.5E1,2E0,2.5E1,3.65E1,3.1711677E-1,2.141079E-1,-9.2660055E-2,2.541562E-1,8.05E0,-2.3097518E-1,-4.0905006E-2,7.30544E-2,-1.4022931E-1,-2.7441758E-1,2.8E1,2.7115095E-1,-1.4418714E-1,8.1125E0,2.8E1,2.4431752E-1,1.99667E1,7.875E0,1.11333E1,6.890469E-2,7.7333E0,1.0442227E-1,1E0,2.625E1,1.2E2,7.882161E-2,-8.736212E-2,7.333626E-2,2.0935135E-1,-2.2300808E-1,6.8775915E-2,-2.787001E-1,-1.1259157E-1,2.5589164E-2,-2.7148256E-1,-9.311367E-2,2.4587655E-1,-7.142996E-2,1.705887E-1],"split_indices":[6,1,2,2,2,5,0,2,4,0,4,0,0,4,0,0,0,0,0,0,2,0,0,0,0,0,0,0,0,2,0,0,2,2,2,0,2,0,5,2,2,0,0,0,0,0,0,0,0,0,0,0,0,0,0],"split_type":[0,0,0,0,0,0,0,0,0,0,0,0,0,0,0,0,0,0,0,0,0,0,0,0,0,0,0,0,0,0,0,0,0,0,0,0,0,0,0,0,0,0,0,0,0,0,0,0,0,0,0,0,0,0,0],"sum_hessian":[1.12453735E2,4.1878143E1,7.057559E1,1.7838326E1,2.4039818E1,1.8314959E1,5.226063E1,1.5397828E1,2.4404974E0,2.1352331E1,2.6874862E0,3.2473583E0,1.50676E1,4.877872E0,4.738276E1,7.246008E0,8.15182E0,1.3657672E0,1.0747302E0,1.6744668E0,1.9677864E1,1.6526964E0,1.0347897E0,1.1926591E0,2.054699E0,3.804468E0,1.1263132E1,2.8420777E0,2.0357943E0,9.517633E0,3.7865128E1,4.8582163E0,2.3877919E0,9.059882E0,1.0617983E1,1.9064409E0,9.356691E0,1.6425232E0,7.87511E0,3.3804126E0,3.4484715E1,1.2776866E0,1.1101052E0,7.2256417E0,1.8342403E0,2.5865297E0,8.031453E0,3.9952087E0,5.3614826E0,1.7730831E0,6.102027E0,1.5096519E0,1.8707607E0,3.280818E1,1.67653E0],"tree_param":{"num_deleted":"0","num_feature":"7","num_nodes":"55","size_leaf_vector":"1"}},{"base_weights":[-3.939353E-3,3.6469722E-1,-2.1988615E-1,7.3175484E-1,1.01279214E-1,-5.21736E-1,-1.1209765E-1,7.9073936E-1,2.6390025E-1,2.5354567E-1,2.104648E-3,-3.9166343E-1,-2.540572E-1,-7.155859E-2,-6.043677E-1,4.9101582E-1,2.952676E-1,1.940203E-1,-7.570926E-2,1.23638265E-1,-2.3925383E-1,-2.4705279E-1,-2.2709566E-1,2.3332989E-1,-1.3590595E-1,-5.8680568E-2,-2.1744871E-1,2.173852E-1,-4.3820813E-3,-2.2118548E-1,2.4243571E-1,9.0242155E-2,-3.1330296E-1,-3.7599733E-1,-7.34617E-2,8.8371985E-2,-1.0683524E-1,3.906613E-2,-2.617128E-1,1.1241893E-1,-4.8406042E-2,1.2811576E-2,-1.6162284E-1,-1.6719916E-1,1.0227152E-1,1.7130187E-2,-8.544478E-2],"categories":[],"categories_nodes":[],"categories_segments":[],"categories_sizes":[],"default_left":[0,0,0,0,0,0,0,0,0,0,0,0,0,0,0,0,0,0,0,0,0,0,0,0,0,0,0,0,0,0,0,0,0,0,0,0,0,0,0,0,0,0,0,0,0,0,0],"id":6,"left_children":[1,3,5,7,9,11,13,15,17,-1,19,21,-1,23,25,27,-1,-1,-1,29,-1,-1,31,-1,33,-1,-1,-1,35,37,39,-1,41,43,45,-1,-1,-1,-1,-1,-1,-1,-1,-1,-1,-1,-1],"loss_changes":[8.471425E0,3.7272196E0,2.124511E0,2.4018669E-1,1.772423E0,4.0335226E-1,9.688056E-1,3.2534218E-1,8.1978E-1,0E0,2.258219E0,8.274677E-1,0E0,2.7284184E0,4.160762E-2,8.671323E-1,0E0,0E0,0E0,8.7931925E-1,0E0,0E0,6.2746304E-1,0E0,6.5394515E-1,0E0,0E0,0E0,4.609788E-1,1.4151509E0,8.867873E-1,0E0,8.7068224E-1,1.3782414E0,1.0461198E0,0E0,0E0,0E0,0E0,0E0,0E0,0E0,0E0,0E0,0E0,0E0,0E0],"parents":[2147483647,0,0,1,1,2,2,3,3,4,4,5,5,6,6,7,7,8,8,10,10,11,11,13,13,14,14,15,15,19,19,22,22,24,24,28,28,29,29,30,30,32,32,33,33,34,34],"right_children":[2,4,6,8,10,12,14,16,18,-1,20,22,-1,24,26,28,-1,-1,-1,30,-1,-1,32,-1,34,-1,-1,-1,36,38,40,-1,42,44,46,-1,-1,-1,-1,-1,-1,-1,-1,-1,-1,-1,-1],"split_conditions":[1E0,3E0,7.925E0,1.5155E2,6E0,3.25E1,3E0,2.9E1,1E0,2.5354567E-1,2.54667E1,2.2E1,-2.540572E-1,1.3E1,3.23208E1,3.65E1,2.952676E-1,1.940203E-1,-7.570926E-2,2.2E1,-2.3925383E-1,-2.4705279E-1,7.0458E0,2.3332989E-1,2.5E1,-5.8680568E-2,-2.1744871E-1,2.173852E-1,2.325E1,1.15E1,3E1,9.0242155E-2,2E0,1E0,3.65E1,8.8371985E-2,-1.0683524E-1,3.906613E-2,-2.617128E-1,1.1241893E-1,-4.8406042E-2,1.2811576E-2,-1.6162284E-1,-1.6719916E-1,1.0227152E-1,1.7130187E-2,-8.544478E-2],"split_indices":[6,1,2,2,0,0,4,2,4,0,2,0,0,0,2,0,0,0,0,0,0,0,2,0,0,0,0,0,2,2,0,0,5,3,0,0,0,0,0,0,0,0,0,0,0,0,0],"split_type":[0,0,0,0,0,0,0,0,0,0,0,0,0,0,0,0,0,0,0,0,0,0,0,0,0,0,0,0,0,0,0,0,0,0,0,0,0,0,0,0,0,0,0,0,0,0,0],"sum_hessian":[1.044097E2,3.8314793E1,6.609491E1,1.5265411E1,2.3049381E1,1.638109E1,4.9713818E1,1.2943435E1,2.3219764E0,1.8266286E0,2.1222754E1,1.3274838E1,3.106252E0,4.6989536E1,2.7242837E0,6.465559E0,6.477876E0,1.1881725E0,1.133804E0,1.9156536E1,2.066218E0,2.5580716E0,1.0716767E1,2.5285149E0,4.446102E1,1.2173111E0,1.5069726E0,4.079297E0,2.3862617E0,4.6877913E0,1.4468744E1,1.1549451E0,9.561822E0,8.14047E0,3.632055E1,1.3777586E0,1.0085031E0,3.5643609E0,1.1234306E0,1.095237E1,3.5163739E0,4.0215974E0,5.5402246E0,6.6747456E0,1.4657242E0,2.2902533E1,1.3418016E1],"tree_param":{"num_deleted":"0","num_feature":"7","num_nodes":"47","size_leaf_vector":"1"}},{"base_weights":[-5.4372386E-3,2.9658672E-1,-1.7679872E-1,6.519345E-1,6.660476E-2,-4.471886E-1,-8.605023E-2,7.102719E-1,2.3263904E-1,2.1934749E-1,-1.867357E-2,-3.2472485E-1,-2.349274E-1,-5.0440893E-2,-5.416901E-1,4.1620928E-1,2.765393E-1,-7.62348E-2,1.8707995E-1,1.6269071E-1,-4.060323E-1,-2.26914E-1,-1.7601064E-1,4.4447652E-1,-1.2946375E-1,-4.054372E-2,-2.0039307E-1,1.0645634E-1,2.3158878E-1,4.073763E-1,-8.318401E-2,-2.0739414E-2,-2.5321132E-1,1.3123494E-1,-3.9723802E-1,2.7438033E-1,3.697628E-2,-6.4750826E-1,-5.4411963E-2,1.5403308E-1,-1.4909314E-1,-6.697488E-2,1.615233E-1,1.8740097E-1,-9.172336E-2,-1.155456E-1,1.2710635E-1,2.3052533E-1,-6.2281154E-2,-1.619749E-1,8.206333E-3,-2.3873186E-1,1.9978873E-1,-3.5281905E-3,-2.5771558E-1,-3.937684E-2,5.9636243E-2],"categories":[],"categories_nodes":[],"categories_segments":[],"categories_sizes":[],"default_left":[0,0,0,0,0,0,0,0,0,0,0,0,0,0,0,0,0,0,0,0,0,0,0,0,0,0,0,0,0,0,0,0,0,0,0,0,0,0,0,0,0,0,0,0,0,0,0,0,0,0,0,0,0,0,0,0,0],"id":7,"left_children":[1,3,5,7,9,11,13,15,17,-1,19,21,-1,23,25,27,-1,-1,-1,29,31,-1,33,35,37,-1,-1,39,-1,41,43,45,-1,47,49,-1,51,53,55,-1,-1,-1,-1,-1,-1,-1,-1,-1,-1,-1,-1,-1,-1,-1,-1,-1,-1],"loss_changes":[5.198408E0,2.92853E0,1.5334642E0,1.8148518E-1,1.3279433E0,3.9811683E-1,7.710012E-1,3.6004877E-1,7.709253E-1,0E0,1.5785164E0,7.226223E-1,0E0,1.8855089E0,8.7568164E-2,6.699573E-1,0E0,0E0,0E0,9.5901084E-1,1.1893879E0,0E0,8.1464875E-1,1.2422427E0,1.5619054E0,0E0,0E0,1.4361107E0,0E0,7.710916E-1,1.5301449E0,9.454086E-1,0E0,1.3357215E0,4.2492294E-1,0E0,2.9447277E0,6.7665195E-1,7.454534E-1,0E0,0E0,0E0,0E0,0E0,0E0,0E0,0E0,0E0,0E0,0E0,0E0,0E0,0E0,0E0,0E0,0E0,0E0],"parents":[2147483647,0,0,1,1,2,2,3,3,4,4,5,5,6,6,7,7,8,8,10,10,11,11,13,13,14,14,15,15,19,19,20,20,22,22,23,23,24,24,27,27,29,29,30,30,31,31,33,33,34,34,36,36,37,37,38,38],"right_children":[2,4,6,8,10,12,14,16,18,-1,20,22,-1,24,26,28,-1,-1,-1,30,32,-1,34,36,38,-1,-1,40,-1,42,44,46,-1,48,50,-1,52,54,56,-1,-1,-1,-1,-1,-1,-1,-1,-1,-1,-1,-1,-1,-1,-1,-1,-1,-1],"split_conditions":[1E0,3E0,7.925E0,1.5155E2,6E0,3.25E1,3E0,2.9E1,2.115E2,2.1934749E-1,1E0,2.2E1,-2.349274E-1,2E1,5E0,1E0,2.765393E-1,-7.62348E-2,1.8707995E-1,2E0,2.2525E1,-2.26914E-1,2.9699118E1,1.15E1,2.5E1,-4.054372E-2,-2.0039307E-1,1.61E1,2.3158878E-1,7.65E0,7.775E0,2E0,-2.5321132E-1,2E0,7.775E0,2.7438033E-1,1E0,1E0,5.25542E1,1.5403308E-1,-1.4909314E-1,-6.697488E-2,1.615233E-1,1.8740097E-1,-9.172336E-2,-1.155456E-1,1.2710635E-1,2.3052533E-1,-6.2281154E-2,-1.619749E-1,8.206333E-3,-2.3873186E-1,1.9978873E-1,-3.5281905E-3,-2.5771558E-1,-3.937684E-2,5.9636243E-2],"split_indices":[6,1,2,2,0,0,4,2,2,0,3,0,0,0,0,3,0,0,0,5,2,0,0,2,0,0,0,2,0,2,2,5,0,5,2,0,3,5,2,0,0,0,0,0,0,0,0,0,0,0,0,0,0,0,0,0,0],"split_type":[0,0,0,0,0,0,0,0,0,0,0,0,0,0,0,0,0,0,0,0,0,0,0,0,0,0,0,0,0,0,0,0,0,0,0,0,0,0,0,0,0,0,0,0,0,0,0,0,0,0,0,0,0,0,0,0,0],"sum_hessian":[9.842894E1,3.5365902E1,6.306304E1,1.317474E1,2.2191162E1,1.48597765E1,4.8203266E1,1.0956391E1,2.218349E0,1.6624334E0,2.0528728E1,1.2330892E1,2.5288854E0,4.573933E1,2.4639335E0,5.825476E0,5.1309147E0,1.1440288E0,1.0743201E0,1.4377211E1,6.1515193E0,2.1126423E0,1.0218249E1,5.660866E0,4.0078465E1,1.0746269E0,1.3893065E0,3.8085928E0,2.0168836E0,6.8768125E0,7.5003977E0,3.8298917E0,2.3216274E0,4.447813E0,5.770436E0,2.0506523E0,3.6102135E0,4.1064224E0,3.5972042E1,2.363592E0,1.4450008E0,1.0620034E0,5.814809E0,1.3619556E0,6.138442E0,2.1776667E0,1.6522251E0,1.1039844E0,3.3438284E0,4.1157765E0,1.6546595E0,1.4393766E0,2.170837E0,1.2888038E0,2.8176186E0,2.7966135E1,8.005908E0],"tree_param":{"num_deleted":"0","num_feature":"7","num_nodes":"57","size_leaf_vector":"1"}},{"base_weights":[-3.7381204E-3,2.528706E-1,-1.4499296E-1,5.8199555E-1,5.580717E-2,-3.816898E-1,-6.996288E-2,6.3909405E-1,2.0671098E-1,1.8982793E-1,-1.6948752E-2,-2.6718834E-1,-2.1720187E-1,1.1708681E-1,-1.5012546E-1,3.5964438E-1,2.5937617E-1,1.7742544E-1,-7.890086E-2,6.396852E-2,-1.9636378E-1,-1.8062231E-1,-9.3253724E-2,5.236131E-1,-1.574692E-2,4.3467704E-2,-4.302461E-1,5.915236E-1,-4.0066175E-2,1.296058E-1,-1.4769747E-2,2.9093292E-1,-3.2878652E-1,2.2430405E-1,4.4055387E-2,-2.4259646E-1,2.697212E-1,3.832146E-1,-2.0859888E-1,1.0367376E-1,-5.485426E-1,2.140225E-1,5.03545E-2,-7.373118E-2,5.541849E-2,-1.45667E-1,3.8966067E-2,1.7137791E-1,-5.9256718E-2,-1.377784E-1,6.642828E-3,1.6765778E-1,-3.666811E-2,1.7213061E-1,-6.3685015E-2,-1.8944529E-1,8.6780585E-2,-1.9824956E-1,1.8704874E-2],"categories":[],"categories_nodes":[],"categories_segments":[],"categories_sizes":[],"default_left":[0,0,0,0,0,0,0,0,0,0,0,0,0,0,0,0,0,0,0,0,0,0,0,0,0,0,0,0,0,0,0,0,0,0,0,0,0,0,0,0,0,0,0,0,0,0,0,0,0,0,0,0,0,0,0,0,0,0,0],"id":8,"left_children":[1,3,5,7,9,11,13,15,17,-1,19,21,-1,23,25,27,-1,-1,-1,29,-1,-1,31,33,35,37,39,41,43,-1,45,47,49,-1,-1,-1,51,53,55,-1,57,-1,-1,-1,-1,-1,-1,-1,-1,-1,-1,-1,-1,-1,-1,-1,-1,-1,-1],"loss_changes":[3.4602604E0,2.16608E0,1.0664477E0,1.376524E-1,9.471723E-1,3.7845826E-1,7.36746E-1,3.4745884E-1,7.2304434E-1,0E0,1.1141955E0,6.730434E-1,0E0,8.155718E-1,1.8631611E0,6.148663E-1,0E0,0E0,0E0,5.672751E-1,0E0,0E0,9.482884E-1,2.0349932E-1,2.9884531E0,1.8801177E0,1.4736717E0,9.197807E-2,1.9699107E-1,0E0,1.2147324E0,6.758413E-1,2.9912668E-1,0E0,0E0,0E0,1.173147E0,1.1777523E0,2.8596919E0,0E0,9.0050507E-1,0E0,0E0,0E0,0E0,0E0,0E0,0E0,0E0,0E0,0E0,0E0,0E0,0E0,0E0,0E0,0E0,0E0,0E0],"parents":[2147483647,0,0,1,1,2,2,3,3,4,4,5,5,6,6,7,7,8,8,10,10,11,11,13,13,14,14,15,15,19,19,22,22,23,23,24,24,25,25,26,26,27,27,28,28,30,30,31,31,32,32,36,36,37,37,38,38,40,40],"right_children":[2,4,6,8,10,12,14,16,18,-1,20,22,-1,24,26,28,-1,-1,-1,30,-1,-1,32,34,36,38,40,42,44,-1,46,48,50,-1,-1,-1,52,54,56,-1,58,-1,-1,-1,-1,-1,-1,-1,-1,-1,-1,-1,-1,-1,-1,-1,-1,-1,-1],"split_conditions":[1E0,3E0,7.925E0,1.5155E2,6E0,3.25E1,1.34167E1,2.9E1,1E0,1.8982793E-1,2.54667E1,2.5E1,-2.1720187E-1,2E1,2E0,3.65E1,2.5937617E-1,1.7742544E-1,-7.890086E-2,7.7417E0,-1.9636378E-1,-1.8062231E-1,2.9699118E1,8.3E0,2.7E1,3.675E1,4E0,1E0,4.5E1,1.296058E-1,2.2E1,7.7958E0,7.775E0,2.2430405E-1,4.4055387E-2,-2.4259646E-1,3.25E1,5.3E1,1E0,1.0367376E-1,4.71E1,2.140225E-1,5.03545E-2,-7.373118E-2,5.541849E-2,-1.45667E-1,3.8966067E-2,1.7137791E-1,-5.9256718E-2,-1.377784E-1,6.642828E-3,1.6765778E-1,-3.666811E-2,1.7213061E-1,-6.3685015E-2,-1.8944529E-1,8.6780585E-2,-1.9824956E-1,1.8704874E-2],"split_indices":[6,1,2,2,0,0,2,2,4,0,2,0,0,0,1,0,0,0,0,2,0,0,0,2,0,2,0,4,0,0,0,2,2,0,0,0,0,0,4,0,2,0,0,0,0,0,0,0,0,0,0,0,0,0,0,0,0,0,0],"split_type":[0,0,0,0,0,0,0,0,0,0,0,0,0,0,0,0,0,0,0,0,0,0,0,0,0,0,0,0,0,0,0,0,0,0,0,0,0,0,0,0,0,0,0,0,0,0,0,0,0,0,0,0,0,0,0,0,0,0,0],"sum_hessian":[9.345126E1,3.289778E1,6.0553486E1,1.1589038E1,2.1308743E1,1.3590977E1,4.696251E1,9.448515E0,2.1405234E0,1.5242734E0,1.9784468E1,1.1518637E1,2.0723398E0,1.3950376E1,3.3012135E1,5.3782587E0,4.070256E0,1.0343018E0,1.1062217E0,1.8354746E1,1.4297229E0,3.0960808E0,8.422556E0,2.711178E0,1.1239198E1,2.0020596E1,1.2991536E1,3.1000087E0,2.2782502E0,2.4439714E0,1.5910774E1,3.1117115E0,5.3108444E0,1.0827544E0,1.6284237E0,2.4900832E0,8.749115E0,8.305615E0,1.1714981E1,1.4646441E0,1.1526893E1,1.8763547E0,1.223654E0,1.1409132E0,1.1373369E0,3.1858306E0,1.2724943E1,1.8693564E0,1.2423551E0,3.6464145E0,1.6644298E0,4.7898326E0,3.959282E0,6.3198185E0,1.9857969E0,6.189382E0,5.5255985E0,9.668042E0,1.8588501E0],"tree_param":{"num_deleted":"0","num_feature":"7","num_nodes":"59","size_leaf_vector":"1"}},{"base_weights":[-2.4291938E-3,2.1129328E-1,-1.1788565E-1,5.200789E-1,4.066281E-2,1.1686589E-1,-1.8828398E-1,5.746098E-1,5.549954E-2,1.642083E-1,-2.1363115E-2,-1.18287034E-1,6.448558E-1,2.220953E-1,-2.2030903E-1,7.2786474E-1,2.3274949E-1,1.1188642E-1,-3.21815E-1,1.2992105E-1,-2.607944E-1,2.718189E-1,2.757653E-1,2.0662151E-1,-8.9289375E-2,-1.4687717E-1,-2.3127887E-1,6.1472688E-2,2.5218073E-1,-3.2700423E-2,1.6314349E-1,-1.1666046E-2,4.727956E-1,5.27284E-2,-5.554512E-1,-4.3035617E-1,3.2184828E-2,-2.5248935E-2,1.6180187E-1,-4.7759077E-1,-6.666175E-2,5.2363444E-2,-6.862532E-2,6.8545945E-2,-1.4996845E-1,2.2107396E-1,3.3253744E-2,5.3484496E-2,-2.5076947E-1,-6.7395917E-3,-1.7558241E-1,1.7553632E-1,-1.548396E-1,-2.625198E-2,-2.4301879E-1,-7.670575E-2,1.7067755E-2],"categories":[],"categories_nodes":[],"categories_segments":[],"categories_sizes":[],"default_left":[0,0,0,0,0,0,0,0,0,0,0,0,0,0,0,0,0,0,0,0,0,0,0,0,0,0,0,0,0,0,0,0,0,0,0,0,0,0,0,0,0,0,0,0,0,0,0,0,0,0,0,0,0,0,0,0,0],"id":9,"left_children":[1,3,5,7,9,11,13,15,-1,-1,17,19,21,23,25,27,29,31,33,-1,35,-1,37,-1,-1,39,-1,-1,-1,41,-1,43,45,-1,47,49,51,-1,-1,53,55,-1,-1,-1,-1,-1,-1,-1,-1,-1,-1,-1,-1,-1,-1,-1,-1],"loss_changes":[2.2568176E0,1.6692269E0,1.0031152E0,1.0079169E-1,6.9522345E-1,1.8533707E0,6.541934E-1,3.1640124E-1,0E0,0E0,8.50291E-1,9.574158E-1,1.9028592E-1,1.1343004E0,1.6343842E0,1.7750669E-1,3.7616724E-1,6.6690576E-1,8.5407466E-1,0E0,4.6912378E-1,0E0,3.6125565E-1,0E0,0E0,1.0126318E0,0E0,0E0,0E0,1.7340371E-1,0E0,1.5242049E0,2.8223282E-1,0E0,1.1096245E0,3.580582E-1,1.6026585E0,0E0,0E0,9.0483356E-1,7.8171366E-1,0E0,0E0,0E0,0E0,0E0,0E0,0E0,0E0,0E0,0E0,0E0,0E0,0E0,0E0,0E0,0E0],"parents":[2147483647,0,0,1,1,2,2,3,3,4,4,5,5,6,6,7,7,10,10,11,11,12,12,13,13,14,14,15,15,16,16,17,17,18,18,20,20,22,22,25,25,29,29,31,31,32,32,34,34,35,35,36,36,39,39,40,40],"right_children":[2,4,6,8,10,12,14,16,-1,-1,18,20,22,24,26,28,30,32,34,-1,36,-1,38,-1,-1,40,-1,-1,-1,42,-1,44,46,-1,48,50,52,-1,-1,54,56,-1,-1,-1,-1,-1,-1,-1,-1,-1,-1,-1,-1,-1,-1,-1,-1],"split_conditions":[1E0,3E0,1E0,1.5155E2,6E0,1E0,1.2E1,3.65E1,5.549954E-2,1.642083E-1,1E0,2.35E1,1.585E1,2E0,1E0,2.1075E1,2.9E1,1.45E1,2.8E1,1.2992105E-1,3.5E1,2.718189E-1,3.2E1,2.0662151E-1,-8.9289375E-2,2.5E1,-2.3127887E-1,6.1472688E-2,2.5218073E-1,2.325E1,1.6314349E-1,8.05E0,1.59E1,5.27284E-2,1E0,2.9699118E1,4.05E1,-2.5248935E-2,1.6180187E-1,2E1,8.1125E0,5.2363444E-2,-6.862532E-2,6.8545945E-2,-1.4996845E-1,2.2107396E-1,3.3253744E-2,5.3484496E-2,-2.5076947E-1,-6.7395917E-3,-1.7558241E-1,1.7553632E-1,-1.548396E-1,-2.625198E-2,-2.4301879E-1,-7.670575E-2,1.7067755E-2],"split_indices":[6,1,5,2,0,4,0,0,0,0,3,0,2,4,3,2,2,2,0,0,0,0,0,0,0,0,0,0,0,2,0,2,2,0,5,0,0,0,0,0,2,0,0,0,0,0,0,0,0,0,0,0,0,0,0,0,0],"split_type":[0,0,0,0,0,0,0,0,0,0,0,0,0,0,0,0,0,0,0,0,0,0,0,0,0,0,0,0,0,0,0,0,0,0,0,0,0,0,0,0,0,0,0,0,0,0,0,0,0,0,0,0,0,0,0,0,0],"sum_hessian":[8.9449905E1,3.1082586E1,5.836732E1,1.0333796E1,2.074879E1,1.3313112E1,4.505421E1,8.272663E0,2.0611327E0,1.4095199E0,1.933927E1,9.747705E0,3.5654063E0,2.831784E0,4.2222424E1,4.932368E0,3.340295E0,1.3832295E1,5.5069757E0,1.5832443E0,8.164461E0,1.2359004E0,2.329506E0,1.3207438E0,1.5110402E0,3.837183E1,3.850596E0,1.3744205E0,3.5579474E0,2.285123E0,1.055172E0,1.1025528E1,2.806767E0,1.8387316E0,3.668244E0,4.8744664E0,3.2899947E0,1.2725028E0,1.0570031E0,6.5233583E0,3.184847E1,1.1641718E0,1.1209513E0,7.7469344E0,3.2785935E0,1.0237643E0,1.7830026E0,1.1151012E0,2.5531428E0,1.6569182E0,3.2175481E0,1.604677E0,1.6853179E0,3.582852E0,2.9405062E0,1.2166176E1,1.9682295E1],"tree_param":{"num_deleted":"0","num_feature":"7","num_nodes":"57","size_leaf_vector":"1"}},{"base_weights":[4.3837484E-3,1.8278517E-1,-9.031626E-2,4.5958617E-1,3.8141694E-2,-3.9113107E-1,-4.8785888E-2,6.08706E-1,2.1047957E-1,9.284054E-2,-1.17441975E-1,-8.5299055E-4,-6.1976224E-1,1.6007033E-1,-1.1019674E-1,2.324772E-1,7.436903E-2,1.9445963E-1,-1.1357867E-1,6.706336E-3,4.7946045E-1,2.508177E-1,-2.1253444E-1,-5.9310827E-2,-2.1780984E-1,-9.461272E-2,6.240681E-1,-3.4701448E-2,-3.5105497E-1,-1.3024795E-1,8.245539E-2,1.4878587E-1,-3.1813097E-1,2.6412705E-1,-4.156544E-2,-4.5882797E-1,1.2798391E-1,2.0334868E-1,2.839363E-1,-1.5035902E-1,3.6443445E-1,-4.892027E-1,8.052082E-2,-1.7035699E-2,3.1997564E-1,-2.3371673E-1,3.5440534E-2,-1.3634409E-2,-1.862929E-1,1.2081994E-1,-1.2878764E-1,9.702679E-2,-2.3234265E-3,5.2256887E-3,-1.8462278E-1,1.6615438E-1,-8.75859E-2,-5.9299905E-2,-2.5706643E-1],"categories":[],"categories_nodes":[],"categories_segments":[],"categories_sizes":[],"default_left":[0,0,0,0,0,0,0,0,0,0,0,0,0,0,0,0,0,0,0,0,0,0,0,0,0,0,0,0,0,0,0,0,0,0,0,0,0,0,0,0,0,0,0,0,0,0,0,0,0,0,0,0,0,0,0,0,0,0,0],"id":10,"left_children":[1,3,5,7,9,11,13,15,17,19,-1,21,23,25,27,-1,-1,-1,29,31,33,-1,-1,-1,-1,35,37,39,41,-1,-1,43,45,-1,-1,47,49,51,-1,53,55,57,-1,-1,-1,-1,-1,-1,-1,-1,-1,-1,-1,-1,-1,-1,-1,-1,-1],"loss_changes":[1.4811037E0,1.1992548E0,6.9675076E-1,2.5597715E-1,5.3103447E-1,6.069925E-1,6.780572E-1,1.6411114E-1,8.3965784E-1,6.455555E-1,0E0,2.6747615E0,4.8968315E-2,1.48982E0,7.221265E-1,0E0,0E0,0E0,6.1169726E-1,8.294634E-1,9.9804384E-1,0E0,0E0,0E0,0E0,7.6286393E-1,4.073496E-1,1.5253447E0,9.466238E-1,0E0,0E0,2.413548E0,1.1930541E0,0E0,0E0,2.0723021E-1,1.1179786E0,8.3416566E-2,0E0,1.9930686E0,1.08782E0,7.036444E-1,0E0,0E0,0E0,0E0,0E0,0E0,0E0,0E0,0E0,0E0,0E0,0E0,0E0,0E0,0E0,0E0,0E0],"parents":[2147483647,0,0,1,1,2,2,3,3,4,4,5,5,6,6,7,7,8,8,9,9,11,11,12,12,13,13,14,14,18,18,19,19,20,20,25,25,26,26,27,27,28,28,31,31,32,32,35,35,36,36,37,37,39,39,40,40,41,41],"right_children":[2,4,6,8,10,12,14,16,18,20,-1,22,24,26,28,-1,-1,-1,30,32,34,-1,-1,-1,-1,36,38,40,42,-1,-1,44,46,-1,-1,48,50,52,-1,54,56,58,-1,-1,-1,-1,-1,-1,-1,-1,-1,-1,-1,-1,-1,-1,-1,-1,-1],"split_conditions":[1E0,3E0,7.75E0,1E0,2.54667E1,2.8E1,1E0,3.65E1,2E0,1.875E1,-1.17441975E-1,7.2292E0,1E0,1E0,3.675E1,2.324772E-1,7.436903E-2,1.9445963E-1,2.8E1,1.35E1,2E0,2.508177E-1,-2.1253444E-1,-5.9310827E-2,-2.1780984E-1,2.79E1,1E0,2.62833E1,9.10792E1,-1.3024795E-1,8.245539E-2,1.11333E1,1.55E1,2.6412705E-1,-4.156544E-2,1.51E1,4.05E1,2.7E1,2.839363E-1,1.34167E1,5.3E1,5.79792E1,8.052082E-2,-1.7035699E-2,3.1997564E-1,-2.3371673E-1,3.5440534E-2,-1.3634409E-2,-1.862929E-1,1.2081994E-1,-1.2878764E-1,9.702679E-2,-2.3234265E-3,5.2256887E-3,-1.8462278E-1,1.6615438E-1,-8.75859E-2,-5.9299905E-2,-2.5706643E-1],"split_indices":[6,1,2,4,2,0,5,0,5,2,0,2,5,4,2,0,0,0,0,2,5,0,0,0,0,2,3,2,2,0,0,2,2,0,0,2,0,0,0,2,0,2,0,0,0,0,0,0,0,0,0,0,0,0,0,0,0,0,0],"split_type":[0,0,0,0,0,0,0,0,0,0,0,0,0,0,0,0,0,0,0,0,0,0,0,0,0,0,0,0,0,0,0,0,0,0,0,0,0,0,0,0,0,0,0,0,0,0,0,0,0,0,0,0,0,0,0,0,0,0,0],"sum_hessian":[8.5690056E1,2.9391148E1,5.6298912E1,9.340008E0,2.005114E1,5.8085065E0,5.0490406E1,4.9395475E0,4.4004607E0,1.8481909E1,1.5692301E0,2.5165076E0,3.2919986E0,1.1107529E1,3.9382877E1,2.5959182E0,2.3436294E0,1.4464396E0,2.954021E0,1.5946557E1,2.5353522E0,1.0697294E0,1.4467782E0,1.2375139E0,2.0544848E0,7.685266E0,3.4222627E0,3.0855513E1,8.527366E0,1.553855E0,1.400166E0,1.1471182E1,4.475375E0,1.2801751E0,1.2551771E0,2.5127015E0,5.172565E0,2.1921852E0,1.2300775E0,2.4406525E1,6.4489875E0,7.144348E0,1.3830171E0,1.0138466E1,1.332716E0,1.7941164E0,2.681259E0,1.06863E0,1.4440714E0,3.6502368E0,1.5223279E0,1.0581559E0,1.1340293E0,1.8643118E1,5.7634063E0,5.125998E0,1.3229895E0,4.842413E0,2.3019352E0],"tree_param":{"num_deleted":"0","num_feature":"7","num_nodes":"59","size_leaf_vector":"1"}},{"base_weights":[4.738908E-3,1.5962146E-1,-7.5964496E-2,1.0108121E-1,2.6887468E-1,-3.4246844E-1,-4.086552E-2,1.5315045E-1,-1.2402671E-1,-2.7885286E-3,-5.612427E-1,-1.7100455E-2,-1.2564602E-1,2.3058059E-2,4.2840362E-1,1.9041829E-1,-1.9346927E-1,-5.0898377E-2,-2.0103274E-1,1.7036572E-1,-5.1539823E-2,4.5823732E-1,-7.903309E-2,2.5231254E-1,-1.4037901E-1,1.411852E-1,-1.2678395E-1,1.7277403E-1,2.5391448E-2,-1.9165057E-1,1.2492E-3,2.1674138E-2,-1.1949823E-1,-1.2952134E-2,1.5562999E-1,-7.908541E-2,1.4594445E-2],"categories":[],"categories_nodes":[],"categories_segments":[],"categories_sizes":[],"default_left":[0,0,0,0,0,0,0,0,0,0,0,0,0,0,0,0,0,0,0,0,0,0,0,0,0,0,0,0,0,0,0,0,0,0,0,0,0],"id":11,"left_children":[1,3,5,7,-1,9,11,13,-1,15,17,19,-1,21,23,-1,-1,-1,-1,-1,25,27,29,-1,31,33,35,-1,-1,-1,-1,-1,-1,-1,-1,-1,-1],"loss_changes":[1.0661472E0,1.1689726E0,5.1091146E-1,8.1841004E-1,0E0,4.736644E-1,4.48417E-1,9.3278444E-1,0E0,1.8462572E0,5.191505E-2,1.0116693E0,0E0,8.773808E-1,2.0876746E0,0E0,0E0,0E0,0E0,0E0,6.990081E-1,1.1588931E-1,7.5662065E-1,0E0,2.6930055E-1,9.7338545E-1,8.36362E-1,0E0,0E0,0E0,0E0,0E0,0E0,0E0,0E0,0E0,0E0],"parents":[2147483647,0,0,1,1,2,2,3,3,5,5,6,6,7,7,9,9,10,10,11,11,13,13,14,14,20,20,21,21,22,22,24,24,25,25,26,26],"right_children":[2,4,6,8,-1,10,12,14,-1,16,18,20,-1,22,24,-1,-1,-1,-1,-1,26,28,30,-1,32,34,36,-1,-1,-1,-1,-1,-1,-1,-1,-1,-1],"split_conditions":[1E0,5.1E1,7.75E0,4.3E1,2.6887468E-1,2.8E1,3E0,2.16792E1,-1.2402671E-1,7.2292E0,1E0,1.3E1,-1.2564602E-1,1.8E1,2E0,1.9041829E-1,-1.9346927E-1,-5.0898377E-2,-2.0103274E-1,1.7036572E-1,2E0,1.2275E1,1.9E1,2.5231254E-1,2.5E1,3E0,3.1E1,1.7277403E-1,2.5391448E-2,-1.9165057E-1,1.2492E-3,2.1674138E-2,-1.1949823E-1,-1.2952134E-2,1.5562999E-1,-7.908541E-2,1.4594445E-2],"split_indices":[6,0,2,0,0,0,4,2,0,2,5,0,0,0,3,0,0,0,0,0,5,2,0,0,0,1,0,0,0,0,0,0,0,0,0,0,0],"split_type":[0,0,0,0,0,0,0,0,0,0,0,0,0,0,0,0,0,0,0,0,0,0,0,0,0,0,0,0,0,0,0,0,0,0,0,0,0],"sum_hessian":[8.3324776E1,2.8209127E1,5.5115643E1,2.7185871E1,1.0232573E0,5.394952E0,4.972069E1,2.5325218E1,1.8606522E0,2.5102136E0,2.884738E0,4.776271E1,1.9579834E0,1.7933237E1,7.3919826E0,1.2653801E0,1.2448335E0,1.1840967E0,1.7006413E0,1.7943583E0,4.596835E1,2.7447605E0,1.5188476E1,4.006612E0,3.3853707E0,1.266156E1,3.330679E1,1.6754881E0,1.0692724E0,1.1010884E0,1.4087387E1,2.250339E0,1.1350316E0,9.102705E0,3.558855E0,1.8429453E1,1.4877337E1],"tree_param":{"num_deleted":"0","num_feature":"7","num_nodes":"37","size_leaf_vector":"1"}},{"base_weights":[5.4547647E-3,-1.1958083E-2,1.7828935E-1,1.6856888E-2,-6.322097E-1,-7.4115186E-3,2.4831171E-1,-2.6168078E-1,-2.1412844E-2,4.8311585E-1,-3.4973126E-2,-1.8635808E-2,2.5556678E-1,-9.840994E-3,-3.3414856E-1,-1.3987793E-1,2.4403357E-3,5.4581743E-2,-1.752955E-1],"categories":[],"categories_nodes":[],"categories_segments":[],"categories_sizes":[],"default_left":[0,0,0,0,0,0,0,0,0,0,0,0,0,0,0,0,0,0,0],"id":12,"left_children":[1,3,-1,5,7,9,-1,-1,-1,11,13,-1,-1,15,17,-1,-1,-1,-1],"loss_changes":[8.518223E-1,1.4582919E0,0E0,1.5484165E0,4.2535925E-1,1.059124E0,0E0,0E0,0E0,8.9108247E-1,5.525167E-1,0E0,0E0,5.717191E-1,8.419941E-1,0E0,0E0,0E0,0E0],"parents":[2147483647,0,0,1,1,3,3,4,4,5,5,9,9,10,10,13,13,14,14],"right_children":[2,4,-1,6,8,10,-1,-1,-1,12,14,-1,-1,16,18,-1,-1,-1,-1],"split_conditions":[2.62375E2,1.356333E2,1.7828935E-1,1.108833E2,2.8E1,6E0,2.4831171E-1,-2.6168078E-1,-2.1412844E-2,3E0,2E0,-1.8635808E-2,2.5556678E-1,6.975E0,1.95E1,-1.3987793E-1,2.4403357E-3,5.4581743E-2,-1.752955E-1],"split_indices":[2,2,0,2,0,0,0,0,0,0,3,0,0,2,2,0,0,0,0],"split_type":[0,0,0,0,0,0,0,0,0,0,0,0,0,0,0,0,0,0,0],"sum_hessian":[8.138368E1,7.9997734E1,1.3859439E0,7.7375916E1,2.621823E0,7.608945E1,1.2864697E0,1.4470979E0,1.1747253E0,3.1685543E0,7.292089E1,1.6139153E0,1.5546391E0,6.8222755E1,4.6981354E0,1.640092E0,6.6582664E1,1.6229038E0,3.0752318E0],"tree_param":{"num_deleted":"0","num_feature":"7","num_nodes":"19","size_leaf_vector":"1"}},{"base_weights":[5.352255E-3,1.3464117E-1,-6.113962E-2,3.5901365E-1,2.9434314E-2,-1.0577277E-2,-2.1348333E-1,5.2676046E-1,9.937504E-2,1.2281252E-1,-2.0312317E-2,-8.415558E-2,3.3507034E-1,-7.967953E-2,-1.8457675E-1,2.1200033E-1,5.682786E-2,1.6285448E-1,-1.7029499E-1,1.17194325E-1,-6.7712285E-2,3.0537846E-3,-2.6649237E-1,2.5696912E-1,-5.1809844E-2,-3.3978295E-1,1.5417632E-1,6.491711E-2,-1.2910773E-1,-1.453283E-1,-7.09923E-3,-6.492031E-2,5.310665E-1,-3.3558357E-1,1.6119435E-1,7.015482E-2,-2.449028E-1,-3.101368E-1,6.0773194E-1,-1.969447E-2,9.086017E-2,-2.8191023E-3,-2.1571869E-1,6.459108E-2,2.1386172E-1,2.8895209E-2,-2.2270764E-1,-1.151107E-1,1.6085193E-1,5.6973267E-3,-1.312147E-1,2.2124597E-1,5.8689922E-2],"categories":[],"categories_nodes":[],"categories_segments":[],"categories_sizes":[],"default_left":[0,0,0,0,0,0,0,0,0,0,0,0,0,0,0,0,0,0,0,0,0,0,0,0,0,0,0,0,0,0,0,0,0,0,0,0,0,0,0,0,0,0,0,0,0,0,0,0,0,0,0,0,0],"id":13,"left_children":[1,3,5,7,9,11,13,15,17,-1,19,21,23,25,-1,-1,-1,-1,27,-1,29,31,-1,-1,33,35,37,-1,-1,-1,39,41,43,45,-1,47,-1,49,51,-1,-1,-1,-1,-1,-1,-1,-1,-1,-1,-1,-1,-1,-1],"loss_changes":[7.1283364E-1,6.5389603E-1,4.1996318E-1,3.3511305E-1,3.9110255E-1,1.1016053E0,6.8246704E-1,1.8001842E-1,6.574213E-1,0E0,3.9384428E-1,2.4992042E0,1.579421E0,7.431504E-1,0E0,0E0,0E0,0E0,4.6510786E-1,0E0,4.4520938E-1,1.2229042E0,0E0,0E0,1.0681849E0,1.1685812E0,1.5926483E0,0E0,0E0,0E0,3.197221E-1,1.091073E0,6.9569945E-2,8.09374E-1,0E0,1.0472871E0,0E0,1.7402157E-1,5.4147482E-2,0E0,0E0,0E0,0E0,0E0,0E0,0E0,0E0,0E0,0E0,0E0,0E0,0E0,0E0],"parents":[2147483647,0,0,1,1,2,2,3,3,4,4,5,5,6,6,7,7,8,8,10,10,11,11,12,12,13,13,18,18,20,20,21,21,24,24,25,25,26,26,30,30,31,31,32,32,33,33,35,35,37,37,38,38],"right_children":[2,4,6,8,10,12,14,16,18,-1,20,22,24,26,-1,-1,-1,-1,28,-1,30,32,-1,-1,34,36,38,-1,-1,-1,40,42,44,46,-1,48,-1,50,52,-1,-1,-1,-1,-1,-1,-1,-1,-1,-1,-1,-1,-1,-1],"split_conditions":[1E0,3E0,3.65E1,1E0,7.6292E0,5.25542E1,1E0,3.65E1,2E0,1.2281252E-1,6E0,3.675E1,6.5E1,4.8E1,-1.8457675E-1,2.1200033E-1,5.682786E-2,1.6285448E-1,2.5E1,1.17194325E-1,1.5E1,2.97E1,-2.6649237E-1,2.5696912E-1,3E1,3.1275E1,3E1,6.491711E-2,-1.2910773E-1,-1.453283E-1,3.25E1,2.7E1,3.13875E1,1.3365E2,1.6119435E-1,4.2E1,-2.449028E-1,5.2E1,5.3E1,-1.969447E-2,9.086017E-2,-2.8191023E-3,-2.1571869E-1,6.459108E-2,2.1386172E-1,2.8895209E-2,-2.2270764E-1,-1.151107E-1,1.6085193E-1,5.6973267E-3,-1.312147E-1,2.2124597E-1,5.8689922E-2],"split_indices":[6,1,0,4,2,2,3,0,5,0,0,2,2,0,0,0,0,0,0,0,0,2,0,0,0,2,2,0,0,0,0,2,2,2,0,0,0,0,0,0,0,0,0,0,0,0,0,0,0,0,0,0,0],"split_type":[0,0,0,0,0,0,0,0,0,0,0,0,0,0,0,0,0,0,0,0,0,0,0,0,0,0,0,0,0,0,0,0,0,0,0,0,0,0,0,0,0,0,0,0,0,0,0,0,0,0,0,0,0],"sum_hessian":[8.096224E1,2.7148638E1,5.3813602E1,7.896175E0,1.9252462E1,4.120668E1,1.2606922E1,4.171949E0,3.7242265E0,1.3919814E0,1.7860481E1,3.4598248E1,6.6084313E0,1.0356258E1,2.2506638E0,2.0068147E0,2.165134E0,1.0252275E0,2.698999E0,1.098129E0,1.6762352E1,3.2111946E1,2.4863005E0,2.2974994E0,4.310932E0,4.6885333E0,5.667725E0,1.1528212E0,1.5461777E0,1.240661E0,1.5521691E1,2.9226501E1,2.8854468E0,3.1999335E0,1.1109986E0,2.9788814E0,1.7096521E0,2.9569013E0,2.7108238E0,1.3718616E1,1.8030758E0,2.7874859E1,1.3516414E0,1.8524085E0,1.0330383E0,1.92221E0,1.2777236E0,1.5986176E0,1.3802638E0,1.0616456E0,1.8952557E0,1.4611694E0,1.2496545E0],"tree_param":{"num_deleted":"0","num_feature":"7","num_nodes":"53","size_leaf_vector":"1"}},{"base_weights":[6.4893663E-3,-7.3358556E-3,1.4539742E-1,1.4768642E-2,-4.9063504E-1,-4.8317737E-3,2.0301259E-1,-2.0178543E-1,-1.17818E-2,4.1251013E-1,-2.7480017E-2,-7.476273E-3,2.1080685E-1,-4.96817E-2,3.3758405E-1,1.2519433E-3,-8.572053E-2,1.7079571E-1,-4.9888585E-2],"categories":[],"categories_nodes":[],"categories_segments":[],"categories_sizes":[],"default_left":[0,0,0,0,0,0,0,0,0,0,0,0,0,0,0,0,0,0,0],"id":14,"left_children":[1,3,-1,5,7,9,-1,-1,-1,11,13,-1,-1,15,17,-1,-1,-1,-1],"loss_changes":[5.3502923E-1,8.5250133E-1,0E0,9.9750584E-1,2.6022774E-1,7.242129E-1,0E0,0E0,0E0,5.1822263E-1,6.041893E-1,0E0,0E0,8.808083E-1,5.9481686E-1,0E0,0E0,0E0,0E0],"parents":[2147483647,0,0,1,1,3,3,4,4,5,5,9,9,10,10,13,13,14,14],"right_children":[2,4,-1,6,8,10,-1,-1,-1,12,14,-1,-1,16,18,-1,-1,-1,-1],"split_conditions":[2.62375E2,1.356333E2,1.4539742E-1,1.108833E2,2.8E1,6E0,2.0301259E-1,-2.0178543E-1,-1.17818E-2,3E0,5.6E1,-7.476273E-3,2.1080685E-1,3.65E1,6.4E1,1.2519433E-3,-8.572053E-2,1.7079571E-1,-4.9888585E-2],"split_indices":[2,2,0,2,0,0,0,0,0,0,0,0,0,0,0,0,0,0,0],"split_type":[0,0,0,0,0,0,0,0,0,0,0,0,0,0,0,0,0,0,0],"sum_hessian":[7.939493E1,7.812089E1,1.2740395E0,7.563121E1,2.4896781E0,7.442029E1,1.2109262E0,1.4249591E0,1.0647192E0,2.9446723E0,7.147561E1,1.53893E0,1.4057423E0,6.8192345E1,3.283266E0,5.6324425E1,1.1867921E1,2.1600046E0,1.1232615E0],"tree_param":{"num_deleted":"0","num_feature":"7","num_nodes":"19","size_leaf_vector":"1"}},{"base_weights":[9.105031E-3,1.2264245E-1,-4.937394E-2,3.3889487E-1,2.523476E-2,1.1256764E-1,-6.7500174E-2,4.868238E-1,1.1194093E-1,6.9174126E-2,-1.0450771E-1,-2.8483236E-1,-8.26953E-3,1.9759642E-1,5.5772036E-2,-4.760191E-2,1.09463125E-1,-1.8268364E-3,4.0429994E-1,-1.1038048E-1,-5.294251E-1,3.991672E-1,-6.9449574E-2,9.772836E-2,-4.3023035E-1,2.2436775E-1,-3.2021828E-2,-5.2932245E-1,2.016844E-1,-6.661173E-1,-1.0443491E-2,1.4836785E-1,2.0685114E-1,-5.0770247E-1,-2.4262168E-2,9.324731E-2,-5.0144438E-2,-2.2508162E-1,3.346995E-2,-1.8853633E-1,-5.7087965E-2,1.4243169E-1,-9.543361E-2,-2.3306213E-1,-6.2666796E-2,-6.33088E-2,1.9550048E-1,-8.481519E-3,-2.1948047E-1,-1.8124548E-1,4.9378364E-3],"categories":[],"categories_nodes":[],"categories_segments":[],"categories_sizes":[],"default_left":[0,0,0,0,0,0,0,0,0,0,0,0,0,0,0,0,0,0,0,0,0,0,0,0,0,0,0,0,0,0,0,0,0,0,0,0,0,0,0,0,0,0,0,0,0,0,0,0,0,0,0],"id":15,"left_children":[1,3,5,7,9,-1,11,13,15,17,-1,19,21,-1,-1,-1,-1,23,25,27,29,31,33,35,37,-1,-1,39,41,43,-1,45,-1,47,49,-1,-1,-1,-1,-1,-1,-1,-1,-1,-1,-1,-1,-1,-1,-1,-1],"loss_changes":[5.3818846E-1,5.714332E-1,4.379494E-1,2.2987318E-1,3.5344815E-1,0E0,6.704361E-1,1.2725532E-1,3.755585E-1,4.477463E-1,0E0,4.179054E-1,1.0771827E0,0E0,0E0,0E0,0E0,7.456628E-1,6.5731096E-1,1.1238198E0,2.732166E-1,3.087275E-1,7.294552E-1,8.5354847E-1,6.552215E-1,0E0,0E0,1.2972355E-3,8.8669133E-1,8.8688135E-3,0E0,9.158236E-1,0E0,3.497504E-1,8.3657086E-1,0E0,0E0,0E0,0E0,0E0,0E0,0E0,0E0,0E0,0E0,0E0,0E0,0E0,0E0,0E0,0E0],"parents":[2147483647,0,0,1,1,2,2,3,3,4,4,6,6,7,7,8,8,9,9,11,11,12,12,17,17,18,18,19,19,20,20,21,21,22,22,23,23,24,24,27,27,28,28,29,29,31,31,33,33,34,34],"right_children":[2,4,6,8,10,-1,12,14,16,18,-1,20,22,-1,-1,-1,-1,24,26,28,30,32,34,36,38,-1,-1,40,42,44,-1,46,-1,48,50,-1,-1,-1,-1,-1,-1,-1,-1,-1,-1,-1,-1,-1,-1,-1,-1],"split_conditions":[1E0,3E0,4E0,1E0,2.54667E1,1.1256764E-1,2.5E1,3.65E1,2.8E1,1.875E1,-1.0450771E-1,1.6E1,2.8E1,1.9759642E-1,5.5772036E-2,-4.760191E-2,1.09463125E-1,3.05E1,2E0,8.0292E0,2E0,2.7E1,2.9E1,8.05E0,3.4E1,2.2436775E-1,-3.2021828E-2,2.1E1,2E1,1E0,-1.0443491E-2,2.625E1,2.0685114E-1,3E0,7.2292E0,9.324731E-2,-5.0144438E-2,-2.2508162E-1,3.346995E-2,-1.8853633E-1,-5.7087965E-2,1.4243169E-1,-9.543361E-2,-2.3306213E-1,-6.2666796E-2,-6.33088E-2,1.9550048E-1,-8.481519E-3,-2.1948047E-1,-1.8124548E-1,4.9378364E-3],"split_indices":[6,1,0,4,2,0,0,0,0,2,0,2,0,0,0,0,0,0,5,2,3,0,0,2,0,0,0,0,0,3,0,2,0,1,2,0,0,0,0,0,0,0,0,0,0,0,0,0,0,0,0],"split_type":[0,0,0,0,0,0,0,0,0,0,0,0,0,0,0,0,0,0,0,0,0,0,0,0,0,0,0,0,0,0,0,0,0,0,0,0,0,0,0,0,0,0,0,0,0,0,0,0,0,0,0],"sum_hessian":[7.914595E1,2.6533579E1,5.2612373E1,7.470148E0,1.906343E1,1.3474822E0,5.1264893E1,3.8292217E0,3.6409264E0,1.778637E1,1.2770611E0,1.0163517E1,4.1101376E1,1.680685E0,2.1485367E0,1.9390409E0,1.7018855E0,1.5497552E1,2.2888184E0,6.7794585E0,3.384058E0,4.6447263E0,3.645665E1,1.3201565E1,2.2959876E0,1.0914911E0,1.1973273E0,2.5969296E0,4.182529E0,2.3796663E0,1.0043917E0,3.302753E0,1.3419732E0,2.4509046E0,3.4005745E1,7.2197375E0,5.981827E0,1.201482E0,1.0945054E0,1.3488417E0,1.2480879E0,2.7987535E0,1.3837757E0,1.3528613E0,1.0268049E0,2.2656236E0,1.0371293E0,1.1387631E0,1.3121415E0,1.3234361E0,3.268231E1],"tree_param":{"num_deleted":"0","num_feature":"7","num_nodes":"51","size_leaf_vector":"1"}},{"base_weights":[3.4106143E-3,1.5098585E-1,-4.0374998E-2,2.5122944E-1,-1.2064723E-1,-6.1964247E-2,1.4602566E-1,-6.15492E-2,4.0159547E-1,-1.3694757E-2,-2.6332092E-1,3.7736142E-1,-2.5469136E-1,1.9320792E-1,2.366533E-1,-9.061534E-2,2.990638E-1,-2.7919978E-1,-7.3292956E-2,2.0002599E-1,-3.412615E-2,-1.8738554E-1,5.487618E-1,-4.3954078E-2,-3.5354257E-1,-1.04812324E-1,5.4403675E-1,8.436532E-2,-1.3726343E-1,-2.059827E-1,4.858956E-2,3.6237825E-2,2.1515678E-1,-2.7570052E-2,1.7836767E-1,-3.8284548E-2,-1.5681763E-1,8.60962E-2,-1.9020893E-1,3.0706382E-1,3.685693E-2,2.0437828E-1,-3.203383E-2],"categories":[],"categories_nodes":[],"categories_segments":[],"categories_sizes":[],"default_left":[0,0,0,0,0,0,0,0,0,0,0,0,0,0,0,0,0,0,0,0,0,0,0,0,0,0,0,0,0,0,0,0,0,0,0,0,0,0,0,0,0,0,0],"id":16,"left_children":[1,3,5,7,-1,9,-1,11,13,15,17,19,-1,21,-1,23,25,-1,27,-1,-1,29,31,33,35,37,39,41,-1,-1,-1,-1,-1,-1,-1,-1,-1,-1,-1,-1,-1,-1,-1],"loss_changes":[5.1345414E-1,1.1089231E0,7.2824156E-1,7.7738893E-1,0E0,5.777572E-1,0E0,2.4157526E0,7.3048234E-1,1.2132215E0,1.391593E0,7.2752154E-1,0E0,1.2445931E0,0E0,4.7935626E-1,1.0429244E0,0E0,6.4716035E-1,0E0,0E0,9.5194954E-1,2.4615204E-1,1.1384076E0,1.6025633E-1,1.135894E0,1.1595463E0,9.8175627E-1,0E0,0E0,0E0,0E0,0E0,0E0,0E0,0E0,0E0,0E0,0E0,0E0,0E0,0E0,0E0],"parents":[2147483647,0,0,1,1,2,2,3,3,5,5,7,7,8,8,9,9,10,10,11,11,13,13,15,15,16,16,18,18,21,21,22,22,23,23,24,24,25,25,26,26,27,27],"right_children":[2,4,6,8,-1,10,-1,12,14,16,18,20,-1,22,-1,24,26,-1,28,-1,-1,30,32,34,36,38,40,42,-1,-1,-1,-1,-1,-1,-1,-1,-1,-1,-1,-1,-1,-1,-1],"split_conditions":[1E0,5E1,6.2E1,1.51E1,-1.2064723E-1,3.65E1,1.4602566E-1,1.4E1,3.3E1,3.1E1,4E1,2.9699118E1,-2.5469136E-1,1E0,2.366533E-1,3.96E1,1.22875E1,-2.7919978E-1,3E0,2.0002599E-1,-3.412615E-2,2.79E1,3E0,3.13875E1,2.8E1,3.25E1,1E0,4.3E1,-1.3726343E-1,-2.059827E-1,4.858956E-2,3.6237825E-2,2.1515678E-1,-2.7570052E-2,1.7836767E-1,-3.8284548E-2,-1.5681763E-1,8.60962E-2,-1.9020893E-1,3.0706382E-1,3.685693E-2,2.0437828E-1,-3.203383E-2],"split_indices":[5,0,0,2,0,0,0,2,0,0,0,0,0,3,0,2,2,0,1,0,0,2,1,2,0,0,4,0,0,0,0,0,0,0,0,0,0,0,0,0,0,0,0],"split_type":[0,0,0,0,0,0,0,0,0,0,0,0,0,0,0,0,0,0,0,0,0,0,0,0,0,0,0,0,0,0,0,0,0,0,0,0,0,0,0,0,0,0,0],"sum_hessian":[7.7518074E1,1.7176847E1,6.034123E1,1.5003625E1,2.1732225E0,5.881483E1,1.5263969E0,5.062894E0,9.940731E0,4.830347E1,1.0511361E1,3.5852382E0,1.4776558E0,7.4374123E0,2.503319E0,3.933869E1,8.964781E0,1.4658899E0,9.045471E0,2.0308938E0,1.5543443E0,3.8206604E0,3.616752E0,3.4400806E1,4.937883E0,3.6006672E0,5.364114E0,6.9672537E0,2.0782173E0,1.175492E0,2.6451683E0,1.5063477E0,2.1104043E0,3.2794342E1,1.6064636E0,2.8655372E0,2.072346E0,2.3319502E0,1.2687169E0,1.8395833E0,3.5245304E0,1.0680138E0,5.89924E0],"tree_param":{"num_deleted":"0","num_feature":"7","num_nodes":"43","size_leaf_vector":"1"}},{"base_weights":[3.5603659E-3,1.5553887E-2,-1.2756337E-1,1.4704808E-3,1.5849878E-1,2.1604283E-2,-4.352944E-1,4.4860337E-3,1.7550081E-1,-2.367462E-2,-1.8252748E-1,1.132056E-1,-4.819089E-2,-1.9590668E-2,7.168975E-2,5.3079636E-4,-6.9029845E-2],"categories":[],"categories_nodes":[],"categories_segments":[],"categories_sizes":[],"default_left":[0,0,0,0,0,0,0,0,0,0,0,0,0,0,0,0,0],"id":17,"left_children":[1,3,-1,5,-1,7,9,11,-1,-1,-1,13,15,-1,-1,-1,-1],"loss_changes":[4.0476003E-1,5.500957E-1,0E0,6.710865E-1,0E0,7.002753E-1,1.594854E-1,4.1631293E-1,0E0,0E0,0E0,5.479499E-1,4.459734E-1,0E0,0E0,0E0,0E0],"parents":[2147483647,0,0,1,1,3,3,5,5,6,6,7,7,11,11,12,12],"right_children":[2,4,-1,6,-1,8,10,12,-1,-1,-1,14,16,-1,-1,-1,-1],"split_conditions":[3E0,2.62375E2,-1.2756337E-1,1.356333E2,1.5849878E-1,1.108833E2,1E0,1E0,1.7550081E-1,-2.367462E-2,-1.8252748E-1,1.05E1,3.675E1,-1.9590668E-2,7.168975E-2,5.3079636E-4,-6.9029845E-2],"split_indices":[3,2,0,2,0,2,6,6,0,0,0,2,2,0,0,0,0],"split_type":[0,0,0,0,0,0,0,0,0,0,0,0,0,0,0,0,0],"sum_hessian":[7.6423004E1,7.528098E1,1.1420215E0,7.424471E1,1.036268E0,7.188168E1,2.3630354E0,7.074027E1,1.1414042E0,1.2486262E0,1.1144093E0,2.271333E1,4.8026947E1,9.586585E0,1.3126744E1,3.8455597E1,9.571349E0],"tree_param":{"num_deleted":"0","num_feature":"7","num_nodes":"17","size_leaf_vector":"1"}},{"base_weights":[2.3407436E-3,-2.9601732E-2,1.6312647E-1,8.975951E-3,-5.6039786E-1,1.7724831E-1,1.3661631E-2,-3.6256436E-2,3.8101918E-1,-2.1192926E-1,-1.3662236E-2,2.9363286E-1,-2.8092664E-1,1.2977963E-2,-2.4072006E-1,1.9501634E-1,1.2076321E-1,6.1318415E-1,-8.3923064E-2,-1.7143044E-1,-8.479525E-3,-2.1169616E-2,4.691464E-1,-1.6031525E-1,1.6555206E-1,6.343415E-3,2.7784395E-1,-1.2904641E-1,1.0021809E-1,1.2445876E-1,-9.476237E-2,1.4500946E-2,-5.6147445E-2,2.3251794E-1,-5.067253E-2,6.754802E-2,-1.2029994E-1],"categories":[],"categories_nodes":[],"categories_segments":[],"categories_sizes":[],"default_left":[0,0,0,0,0,0,0,0,0,0,0,0,0,0,0,0,0,0,0,0,0,0,0,0,0,0,0,0,0,0,0,0,0,0,0,0,0],"id":18,"left_children":[1,3,5,7,9,-1,11,13,15,-1,-1,17,19,21,-1,-1,23,25,27,-1,29,31,33,35,-1,-1,-1,-1,-1,-1,-1,-1,-1,-1,-1,-1,-1],"loss_changes":[3.9916012E-1,1.3339916E0,8.1522906E-1,1.0485508E0,2.9963064E-1,0E0,9.540499E-1,2.112788E0,3.9426553E-1,0E0,0E0,7.641393E-1,4.4316006E-1,8.410305E-1,0E0,0E0,6.531288E-1,5.955068E-1,6.628613E-1,0E0,6.432533E-1,5.92773E-1,8.646249E-1,4.238972E-1,0E0,0E0,0E0,0E0,0E0,0E0,0E0,0E0,0E0,0E0,0E0,0E0,0E0],"parents":[2147483647,0,0,1,1,2,2,3,3,4,4,6,6,7,7,8,8,11,11,12,12,13,13,16,16,17,17,18,18,20,20,21,21,22,22,23,23],"right_children":[2,4,6,8,10,-1,12,14,16,-1,-1,18,20,22,-1,-1,24,26,28,-1,30,32,34,36,-1,-1,-1,-1,-1,-1,-1,-1,-1,-1,-1,-1,-1],"split_conditions":[5.25542E1,3.675E1,6.1175E1,2.97E1,5.14792E1,1.7724831E-1,1E0,2.7E1,3.06958E1,-2.1192926E-1,-1.3662236E-2,1.06425E2,8E1,2.62833E1,-2.4072006E-1,1.9501634E-1,3.5E1,1E0,2.217792E2,-1.7143044E-1,1.465208E2,1.4E1,4.9E1,2.2E1,1.6555206E-1,6.343415E-3,2.7784395E-1,-1.2904641E-1,1.0021809E-1,1.2445876E-1,-9.476237E-2,1.4500946E-2,-5.6147445E-2,2.3251794E-1,-5.067253E-2,6.754802E-2,-1.2029994E-1],"split_indices":[2,2,2,2,2,0,5,2,2,0,0,2,2,2,0,0,2,4,2,0,2,2,0,0,0,0,0,0,0,0,0,0,0,0,0,0,0],"split_type":[0,0,0,0,0,0,0,0,0,0,0,0,0,0,0,0,0,0,0,0,0,0,0,0,0,0,0,0,0,0,0,0,0,0,0,0,0],"sum_hessian":[7.577949E1,6.3900578E1,1.1878907E1,6.0487503E1,3.413076E0,2.311494E0,9.567413E0,5.473541E1,5.752091E0,2.3690362E0,1.0440396E0,4.9070687E0,4.660344E0,5.235406E1,2.3813484E0,2.091887E0,3.660204E0,2.3196785E0,2.5873902E0,1.7243104E0,2.9360337E0,4.9595097E1,2.758967E0,2.5957696E0,1.0644344E0,1.1713556E0,1.1483229E0,1.3992329E0,1.1881574E0,1.0880173E0,1.8480163E0,3.5456726E1,1.4138369E1,1.7197267E0,1.0392402E0,1.02256E0,1.5732095E0],"tree_param":{"num_deleted":"0","num_feature":"7","num_nodes":"37","size_leaf_vector":"1"}},{"base_weights":[4.576774E-3,-1.2838101E-1,4.577364E-2,4.6372344E-3,-6.5715283E-1,1.6471247E-1,1.8183853E-2,1.361062E-1,-1.7191112E-1,-2.3661749E-1,-5.183168E-2,-2.2695488E-1,5.8956932E-2,-4.3083927E-1,3.668661E-1,1.4292783E-1,-1.9152488E-1,3.9269227E-1,-2.1981401E-2,-4.6740934E-2,-1.713233E-1,8.382069E-2,5.138893E-1,2.0704506E-1,-1.6756342E-1,1.9764017E-1,2.640559E-1,-2.103802E-1,3.8083132E-2,1.7304598E-1,-1.2348677E-1,3.040034E-2,1.9394925E-1,-1.3741401E-1,9.635822E-2,1.3256946E-1,-1.5190823E-1,7.0244014E-2,-2.3221267E-2],"categories":[],"categories_nodes":[],"categories_segments":[],"categories_sizes":[],"default_left":[0,0,0,0,0,0,0,0,0,0,0,0,0,0,0,0,0,0,0,0,0,0,0,0,0,0,0,0,0,0,0,0,0,0,0,0,0,0,0],"id":19,"left_children":[1,3,5,7,9,-1,11,13,-1,-1,-1,15,17,19,21,23,-1,25,27,-1,-1,29,31,-1,33,35,-1,-1,37,-1,-1,-1,-1,-1,-1,-1,-1,-1,-1],"loss_changes":[4.2301434E-1,1.2886324E0,8.075389E-1,1.2625206E0,9.8309875E-2,0E0,5.8162105E-1,1.926002E0,0E0,0E0,0E0,1.356534E0,1.3467623E0,7.954198E-2,3.7907624E-1,9.983389E-1,0E0,7.5049126E-1,1.6920482E0,0E0,0E0,1.3763496E0,2.8907967E-1,0E0,7.3194134E-1,1.6395637E0,0E0,0E0,8.887151E-1,0E0,0E0,0E0,0E0,0E0,0E0,0E0,0E0,0E0,0E0],"parents":[2147483647,0,0,1,1,2,2,3,3,4,4,6,6,7,7,11,11,12,12,13,13,14,14,15,15,17,17,18,18,21,21,22,22,24,24,25,25,28,28],"right_children":[2,4,6,8,10,-1,12,14,-1,-1,-1,16,18,20,22,24,-1,26,28,-1,-1,30,32,-1,34,36,-1,-1,38,-1,-1,-1,-1,-1,-1,-1,-1,-1,-1],"split_conditions":[7.925E0,3E1,8.05E0,7.8875E0,7.775E0,1.6471247E-1,9.5E0,2.2E1,-1.7191112E-1,-2.3661749E-1,-5.183168E-2,8.1375E0,1.35E1,7.7375E0,7.7333E0,2E1,-1.9152488E-1,4E1,1.52458E1,-4.6740934E-2,-1.713233E-1,2.8E1,2.85E1,2.0704506E-1,3.1E1,3.2E1,2.640559E-1,-2.103802E-1,2E0,1.7304598E-1,-1.2348677E-1,3.040034E-2,1.9394925E-1,-1.3741401E-1,9.635822E-2,1.3256946E-1,-1.5190823E-1,7.0244014E-2,-2.3221267E-2],"split_indices":[2,0,2,2,2,0,2,0,0,0,0,2,2,2,2,0,0,0,2,0,0,0,0,0,0,0,0,0,5,0,0,0,0,0,0,0,0,0,0],"split_type":[0,0,0,0,0,0,0,0,0,0,0,0,0,0,0,0,0,0,0,0,0,0,0,0,0,0,0,0,0,0,0,0,0,0,0,0,0,0,0],"sum_hessian":[7.515557E1,1.727769E1,5.7877884E1,1.459691E1,2.6807797E0,2.0257533E0,5.585213E1,1.2513449E1,2.0834613E0,1.6140413E0,1.0667384E0,7.313729E0,4.8538403E1,3.3690674E0,9.1443815E0,4.195143E0,3.1185856E0,8.722192E0,3.9816208E1,1.8506169E0,1.5184506E0,3.6628575E0,5.481524E0,1.0759959E0,3.1191473E0,7.233432E0,1.4887602E0,2.3674014E0,3.7448807E1,1.753629E0,1.9092286E0,1.7624773E0,3.7190468E0,1.9958112E0,1.1233362E0,5.646607E0,1.5868249E0,1.3500856E1,2.3947952E1],"tree_param":{"num_deleted":"0","num_feature":"7","num_nodes":"39","size_leaf_vector":"1"}},{"base_weights":[-1.8435433E-3,8.9742415E-2,-4.7808137E-2,2.6615374E-2,3.7962076E-1,1.16364434E-1,-6.762242E-2,6.558622E-2,-1.1740357E-1,1.9943634E-1,-9.966881E-3,-2.8131407E-1,-9.210416E-3,1.0868784E-2,1.4708579E-1,-3.9620596E-1,5.039841E-2,3.3932668E-1,-6.209411E-2,7.375813E-2,-1.6963048E-1,-1.5142256E-1,-2.3413435E-1,1.2392496E-1,-8.072374E-2,1.1864923E-1,1.7146784E-1,-4.697104E-1,-2.0836296E-2,-3.1594664E-2,7.499041E-2,5.2398827E-2,-1.4666045E-1,-3.915065E-2,1.3003875E-1,-1.361893E-2,-1.9858183E-1,3.852313E-2,-4.4523247E-2],"categories":[],"categories_nodes":[],"categories_segments":[],"categories_sizes":[],"default_left":[0,0,0,0,0,0,0,0,0,0,0,0,0,0,0,0,0,0,0,0,0,0,0,0,0,0,0,0,0,0,0,0,0,0,0,0,0,0,0],"id":20,"left_children":[1,3,5,7,9,-1,11,13,-1,-1,-1,15,17,19,-1,21,23,25,27,29,-1,31,-1,-1,-1,33,-1,35,37,-1,-1,-1,-1,-1,-1,-1,-1,-1,-1],"loss_changes":[3.211416E-1,4.5650798E-1,4.6450022E-1,3.8424578E-1,5.5004805E-1,0E0,6.1416245E-1,4.8252642E-1,0E0,0E0,0E0,4.2291957E-1,7.553563E-1,7.528021E-1,0E0,6.310667E-1,5.291107E-1,2.0907861E-1,5.8613205E-1,6.12428E-1,0E0,7.573485E-1,0E0,0E0,0E0,3.7285173E-1,0E0,2.3181885E-1,6.516495E-1,0E0,0E0,0E0,0E0,0E0,0E0,0E0,0E0,0E0,0E0],"parents":[2147483647,0,0,1,1,2,2,3,3,4,4,6,6,7,7,11,11,12,12,13,13,15,15,16,16,17,17,18,18,19,19,21,21,25,25,27,27,28,28],"right_children":[2,4,6,8,10,-1,12,14,-1,-1,-1,16,18,20,-1,22,24,26,28,30,-1,32,-1,-1,-1,34,-1,36,38,-1,-1,-1,-1,-1,-1,-1,-1,-1,-1],"split_conditions":[1E0,3.13875E1,4E0,2.77208E1,2E0,1.16364434E-1,2.5E1,4.5E1,-1.1740357E-1,1.9943634E-1,-9.966881E-3,1E0,2.8E1,3.65E1,1.4708579E-1,1.15E1,1E0,2.7E1,2.9E1,1.11333E1,-1.6963048E-1,2E1,-2.3413435E-1,1.2392496E-1,-8.072374E-2,1.8E1,1.7146784E-1,3E0,1.55E1,-3.1594664E-2,7.499041E-2,5.2398827E-2,-1.4666045E-1,-3.915065E-2,1.3003875E-1,-1.361893E-2,-1.9858183E-1,3.852313E-2,-4.4523247E-2],"split_indices":[6,2,0,2,3,0,0,0,0,0,0,3,0,0,0,2,5,0,0,2,0,0,0,0,0,2,0,1,2,0,0,0,0,0,0,0,0,0,0],"split_type":[0,0,0,0,0,0,0,0,0,0,0,0,0,0,0,0,0,0,0,0,0,0,0,0,0,0,0,0,0,0,0,0,0,0,0,0,0,0,0],"sum_hessian":[7.4266716E1,2.4499077E1,4.976764E1,2.101454E1,3.4845378E0,1.3568336E0,4.8410805E1,1.9993423E1,1.0211159E0,1.7000102E0,1.7845275E0,9.57308E0,3.8837727E1,1.8620047E1,1.3733766E0,6.9659343E0,2.6071455E0,4.402959E0,3.4434765E1,1.7574265E1,1.0457827E0,5.106739E0,1.8591951E0,1.0837872E0,1.5233583E0,3.0323741E0,1.3705848E0,2.210532E0,3.2224236E1,8.915846E0,8.65842E0,2.8424137E0,2.2643256E0,2.0195284E0,1.0128458E0,1.0746272E0,1.1359048E0,1.4847687E1,1.7376547E1],"tree_param":{"num_deleted":"0","num_feature":"7","num_nodes":"39","size_leaf_vector":"1"}},{"base_weights":[-2.3142616E-3,-1.02190845E-1,8.122823E-3,9.7442195E-2,-3.544886E-2,2.4400447E-1,-2.4599878E-1,-1.350552E-1,1.0377729E-1,2.990308E-1,-6.9983914E-2,-2.3456621E-1,3.3543038E-1,2.0924732E-1,-1.9571385E-1,2.687256E-1,-5.6775555E-2,-8.1524394E-2,3.5585886E-1,1.4492387E-1,-8.372719E-3,-2.8077282E-2,3.1652206E-1,-2.1779092E-1,-1.0412118E-1,-2.1035679E-2,4.4321603E-1,-2.4628219E-1,1.02324724E-1,1.277236E-1,-7.244035E-2,6.4341244E-3,1.4094815E-1,3.5538796E-2,-6.457606E-2,8.0668315E-2,-1.7153375E-1,2.1706985E-1,3.603704E-2,7.813412E-2,-7.668349E-2],"categories":[],"categories_nodes":[],"categories_segments":[],"categories_sizes":[],"default_left":[0,0,0,0,0,0,0,0,0,0,0,0,0,0,0,0,0,0,0,0,0,0,0,0,0,0,0,0,0,0,0,0,0,0,0,0,0,0,0,0,0],"id":21,"left_children":[1,-1,3,5,7,9,11,13,15,17,-1,-1,19,21,23,25,27,-1,29,-1,-1,-1,31,-1,33,35,37,-1,39,-1,-1,-1,-1,-1,-1,-1,-1,-1,-1,-1,-1],"loss_changes":[2.652841E-1,0E0,2.8793E-1,1.2798154E0,7.0550716E-1,5.2902174E-1,2.6758492E0,6.570983E-1,5.809624E-1,6.194966E-1,0E0,0E0,2.5033498E-1,1.8888566E-1,1.1677202E0,5.5086577E-1,1.5004417E0,0E0,7.327843E-1,0E0,0E0,0E0,1.6400406E-1,0E0,5.9434545E-1,9.48998E-1,5.2271616E-1,0E0,6.626555E-1,0E0,0E0,0E0,0E0,0E0,0E0,0E0,0E0,0E0,0E0,0E0,0E0],"parents":[2147483647,0,0,2,2,3,3,4,4,5,5,6,6,7,7,8,8,9,9,12,12,13,13,14,14,15,15,16,16,18,18,22,22,24,24,25,25,26,26,28,28],"right_children":[2,-1,4,6,8,10,12,14,16,18,-1,-1,20,22,24,26,28,-1,30,-1,-1,-1,32,-1,34,36,38,-1,40,-1,-1,-1,-1,-1,-1,-1,-1,-1,-1,-1,-1],"split_conditions":[6.975E0,-1.02190845E-1,2E0,3E1,3E1,1.06425E2,3.1E1,7.7958E0,3.65E1,1.2E1,-6.9983914E-2,-2.3456621E-1,9E1,2.2E1,7.925E0,1.22875E1,4E1,-8.1524394E-2,2E0,1.4492387E-1,-8.372719E-3,-2.8077282E-2,7.725E0,-2.1779092E-1,2E1,3.25E1,1E0,-2.4628219E-1,3.06958E1,1.277236E-1,-7.244035E-2,6.4341244E-3,1.4094815E-1,3.5538796E-2,-6.457606E-2,8.0668315E-2,-1.7153375E-1,2.1706985E-1,3.603704E-2,7.813412E-2,-7.668349E-2],"split_indices":[2,0,5,0,0,2,2,2,0,0,0,0,2,0,2,2,0,0,3,0,0,0,2,0,0,0,4,0,2,0,0,0,0,0,0,0,0,0,0,0,0],"split_type":[0,0,0,0,0,0,0,0,0,0,0,0,0,0,0,0,0,0,0,0,0,0,0,0,0,0,0,0,0,0,0,0,0,0,0,0,0,0,0,0,0],"sum_hessian":[7.334444E1,1.2481487E0,7.209628E1,2.3233212E1,4.8863075E1,1.6486979E1,6.746232E0,2.8501936E1,2.0361137E1,1.5117544E1,1.369435E0,3.3311903E0,3.4150417E0,3.9023495E0,2.4599586E1,9.710766E0,1.0650372E1,1.026408E0,1.4091136E1,2.1939418E0,1.2210999E0,1.0541174E0,2.848232E0,2.60315E0,2.1996437E1,3.9803631E0,5.730403E0,1.1184615E0,9.53191E0,1.2872337E1,1.2187988E0,1.3635767E0,1.4846554E0,7.3031683E0,1.4693269E1,2.942888E0,1.0374751E0,2.4044986E0,3.3259044E0,6.800208E0,2.731702E0],"tree_param":{"num_deleted":"0","num_feature":"7","num_nodes":"41","size_leaf_vector":"1"}},{"base_weights":[-1.0472195E-2,-1.2308717E-1,2.3998262E-2,-1.443062E-2,-5.769093E-1,1.3242088E-1,4.418342E-4,-3.3376405E-1,1.0387825E-1,-2.0754384E-1,-4.9304944E-2,-1.9109802E-1,3.1770863E-2,-7.0365176E-2,-1.7158848E-1,2.291707E-1,-1.261147E-1,1.1367411E-1,-5.609995E-1,2.0864496E-1,5.7597616E-4,7.343895E-2,-1.03263594E-1,1.7164613E-1,1.03076264E-1,1.5142551E-1,-1.2888461E-1,-5.8545668E-2,-2.0799293E-1,1.0686442E-1,-5.3105842E-2,9.772486E-2,-4.100986E-3,-1.1406908E-1,7.278109E-2,1.4731262E-3,9.902135E-2,8.936452E-2,-2.325628E-2],"categories":[],"categories_nodes":[],"categories_segments":[],"categories_sizes":[],"default_left":[0,0,0,0,0,0,0,0,0,0,0,0,0,0,0,0,0,0,0,0,0,0,0,0,0,0,0,0,0,0,0,0,0,0,0,0,0,0,0],"id":22,"left_children":[1,3,5,7,9,-1,11,13,15,-1,-1,17,19,21,-1,23,-1,25,27,-1,29,-1,-1,-1,31,-1,33,-1,-1,35,37,-1,-1,-1,-1,-1,-1,-1,-1],"loss_changes":[2.8863987E-1,8.502015E-1,5.620705E-1,6.0412544E-1,4.451883E-2,0E0,3.3689442E-1,2.3029646E-1,8.6886215E-1,0E0,0E0,9.535142E-1,9.983382E-1,3.5940433E-1,0E0,3.795401E-1,0E0,5.543958E-1,4.5429945E-2,0E0,2.7426404E-1,0E0,0E0,0E0,2.2889435E-1,0E0,4.6390864E-1,0E0,0E0,3.654136E-1,2.9683936E-1,0E0,0E0,0E0,0E0,0E0,0E0,0E0,0E0],"parents":[2147483647,0,0,1,1,2,2,3,3,4,4,6,6,7,7,8,8,11,11,12,12,13,13,15,15,17,17,18,18,20,20,24,24,26,26,29,29,30,30],"right_children":[2,4,6,8,10,-1,12,14,16,-1,-1,18,20,22,-1,24,-1,26,28,-1,30,-1,-1,-1,32,-1,34,-1,-1,36,38,-1,-1,-1,-1,-1,-1,-1,-1],"split_conditions":[7.925E0,3E1,8.05E0,2.2E1,7.775E0,1.3242088E-1,9.5E0,1E0,7.8875E0,-2.0754384E-1,-4.9304944E-2,8.1375E0,9.8375E0,7.7375E0,-1.7158848E-1,2.35E1,-1.261147E-1,2E1,2.8E1,2.0864496E-1,1E0,7.343895E-2,-1.03263594E-1,1.7164613E-1,7.25E0,1.5142551E-1,3.1E1,-5.8545668E-2,-2.0799293E-1,3.25E1,4E0,9.772486E-2,-4.100986E-3,-1.1406908E-1,7.278109E-2,1.4731262E-3,9.902135E-2,8.936452E-2,-2.325628E-2],"split_indices":[2,0,2,0,2,0,2,6,2,0,0,2,2,2,0,0,0,0,0,0,6,0,0,0,2,0,0,0,0,0,0,0,0,0,0,0,0,0,0],"split_type":[0,0,0,0,0,0,0,0,0,0,0,0,0,0,0,0,0,0,0,0,0,0,0,0,0,0,0,0,0,0,0,0,0,0,0,0,0,0,0],"sum_hessian":[7.259457E1,1.641054E1,5.618403E1,1.4072922E1,2.3376172E0,2.053806E0,5.4130222E1,3.3120573E0,1.0760865E1,1.2989593E0,1.0386579E0,6.892296E0,4.7237926E1,2.187987E0,1.1240699E0,9.139496E0,1.6213694E0,4.1586003E0,2.7336957E0,1.1646065E0,4.607332E1,1.0665783E0,1.1214089E0,1.5058923E0,7.633603E0,1.1781392E0,2.9804611E0,1.3834146E0,1.350281E0,1.5128543E1,3.0944777E1,2.009876E0,5.6237273E0,1.7636552E0,1.2168059E0,1.1086547E1,4.0419955E0,1.2840953E0,2.966068E1],"tree_param":{"num_deleted":"0","num_feature":"7","num_nodes":"39","size_leaf_vector":"1"}},{"base_weights":[-8.210087E-3,-4.8685025E-2,9.6657895E-2,-1.1887155E-2,-1.9264862E-1,1.6899605E-1,1.4357131E-2,-4.2472765E-2,3.7990776E-1,-2.0445539E-1,1.3078123E-1,1.2988955E-1,-6.3361555E-2,1.6605127E-1,2.237496E-3,1.5193366E-1,-1.8838634E-1,4.4049433E-1,-7.318855E-3,-8.7809496E-2,1.3841884E-1,-1.1073114E-1,1.524914E-1,1.3306565E-2,1.8772061E-1,1.7121986E-1,-1.9456814E-1,-9.295752E-3,-1.6816096E-1,5.5798046E-2,-9.471785E-2,1.0425199E-1,-7.954953E-2,-1.2879819E-1,1.9595077E-2],"categories":[],"categories_nodes":[],"categories_segments":[],"categories_sizes":[],"default_left":[0,0,0,0,0,0,0,0,0,0,0,0,0,0,0,0,0,0,0,0,0,0,0,0,0,0,0,0,0,0,0,0,0,0,0],"id":23,"left_children":[1,3,5,7,-1,-1,9,11,13,15,17,-1,19,-1,-1,21,-1,23,25,27,-1,29,-1,-1,-1,31,33,-1,-1,-1,-1,-1,-1,-1,-1],"loss_changes":[3.1286258E-1,1.1508696E0,7.812774E-1,6.2692255E-1,0E0,0E0,4.9796835E-1,5.059094E-1,2.4100888E-1,1.1238719E0,5.457158E-1,0E0,6.437865E-1,0E0,0E0,4.7802278E-1,0E0,2.60471E-1,3.5946026E-1,1.2121091E0,0E0,2.6643848E-1,0E0,0E0,0E0,5.17251E-1,3.471141E-1,0E0,0E0,0E0,0E0,0E0,0E0,0E0,0E0],"parents":[2147483647,0,0,1,1,2,2,3,3,6,6,7,7,8,8,9,9,10,10,12,12,15,15,17,17,18,18,19,19,21,21,25,25,26,26],"right_children":[2,4,6,8,-1,-1,10,12,14,16,18,-1,20,-1,-1,22,-1,24,26,28,-1,30,-1,-1,-1,32,34,-1,-1,-1,-1,-1,-1,-1,-1],"split_conditions":[2.97E1,2.77208E1,3.06958E1,2.62833E1,-1.9264862E-1,1.6899605E-1,5.2E1,9E0,4.55E1,3.675E1,6.1175E1,1.2988955E-1,2E0,1.6605127E-1,2.237496E-3,3.5E1,-1.8838634E-1,5.5E1,1E0,2.0575E1,1.3841884E-1,2.2E1,1.524914E-1,1.3306565E-2,1.8772061E-1,5E1,9.10792E1,-9.295752E-3,-1.6816096E-1,5.5798046E-2,-9.471785E-2,1.0425199E-1,-7.954953E-2,-1.2879819E-1,1.9595077E-2],"split_indices":[2,2,2,2,0,0,2,0,0,2,2,0,4,0,0,2,0,2,5,2,0,0,0,0,0,0,2,0,0,0,0,0,0,0,0],"split_type":[0,0,0,0,0,0,0,0,0,0,0,0,0,0,0,0,0,0,0,0,0,0,0,0,0,0,0,0,0,0,0,0,0,0,0],"sum_hessian":[7.1601006E1,5.204819E1,1.9552816E1,4.9969894E1,2.078297E0,2.0551336E0,1.7497683E1,4.7178482E1,2.7914107E0,5.814163E0,1.1683518E1,1.1553377E0,4.6023144E1,1.5724037E0,1.219007E0,3.505449E0,2.3087144E0,2.9277847E0,8.7557335E0,4.477002E1,1.253125E0,2.4148526E0,1.0905964E0,1.327775E0,1.6000096E0,4.5259395E0,4.229794E0,4.0917164E1,3.8528578E0,1.024545E0,1.3903078E0,3.3687377E0,1.157202E0,1.8797717E0,2.3500223E0],"tree_param":{"num_deleted":"0","num_feature":"7","num_nodes":"35","size_leaf_vector":"1"}},{"base_weights":[-2.495416E-3,-1.0122327E-1,2.7461935E-2,-7.428806E-3,-5.1470333E-1,1.0023859E-1,9.28357E-3,-2.8903148E-1,9.247911E-2,-1.885343E-1,-4.1244216E-2,-1.5883192E-1,3.6054447E-2,-1.3839564E-1,-2.151545E-2,1.9324577E-1,-1.0768621E-1,1.0709239E-1,-5.021689E-1,2.2556905E-1,3.338037E-3,-1.6807573E-2,3.1932867E-1,1.2597896E-1,-9.89369E-2,-5.0591458E-2,-1.8849722E-1,-6.0160916E-2,1.1533928E-1,1.18922986E-1,-1.24551155E-1,1.0416306E-2,1.2305933E-1,-9.6851334E-2,6.0653344E-2,-1.3253097E-1,-4.946649E-3,1.3597971E-1,-6.829892E-3],"categories":[],"categories_nodes":[],"categories_segments":[],"categories_sizes":[],"default_left":[0,0,0,0,0,0,0,0,0,0,0,0,0,0,0,0,0,0,0,0,0,0,0,0,0,0,0,0,0,0,0,0,0,0,0,0,0,0,0],"id":24,"left_children":[1,3,5,7,9,-1,11,13,15,-1,-1,17,19,-1,-1,21,-1,23,25,-1,27,29,31,-1,33,-1,-1,35,37,-1,-1,-1,-1,-1,-1,-1,-1,-1,-1],"loss_changes":[2.1525554E-1,6.530465E-1,3.0853805E-1,4.436907E-1,4.7344387E-2,0E0,2.4787155E-1,1.21299535E-1,6.01451E-1,0E0,0E0,7.454535E-1,1.1035392E0,0E0,0E0,2.758354E-1,0E0,3.6983275E-1,4.0565968E-2,0E0,3.3528018E-1,9.515208E-1,1.5209746E-1,0E0,3.2687557E-1,0E0,0E0,4.946937E-1,8.058933E-1,0E0,0E0,0E0,0E0,0E0,0E0,0E0,0E0,0E0,0E0],"parents":[2147483647,0,0,1,1,2,2,3,3,4,4,6,6,7,7,8,8,11,11,12,12,15,15,17,17,18,18,20,20,21,21,22,22,24,24,27,27,28,28],"right_children":[2,4,6,8,10,-1,12,14,16,-1,-1,18,20,-1,-1,22,-1,24,26,-1,28,30,32,-1,34,-1,-1,36,38,-1,-1,-1,-1,-1,-1,-1,-1,-1,-1],"split_conditions":[7.925E0,3E1,8.05E0,2.2E1,7.775E0,1.0023859E-1,9.5E0,7.3125E0,7.8875E0,-1.885343E-1,-4.1244216E-2,8.1375E0,9.825E0,-1.3839564E-1,-2.151545E-2,7.7333E0,-1.0768621E-1,2E1,2.8E1,2.2556905E-1,3.3E1,2.8E1,2.85E1,1.2597896E-1,3.1E1,-5.0591458E-2,-1.8849722E-1,1.11333E1,3.65E1,1.18922986E-1,-1.24551155E-1,1.0416306E-2,1.2305933E-1,-9.6851334E-2,6.0653344E-2,-1.3253097E-1,-4.946649E-3,1.3597971E-1,-6.829892E-3],"split_indices":[2,0,2,0,2,0,2,2,2,0,0,2,2,0,0,2,0,0,0,0,0,0,0,0,0,0,0,2,0,0,0,0,0,0,0,0,0,0,0],"split_type":[0,0,0,0,0,0,0,0,0,0,0,0,0,0,0,0,0,0,0,0,0,0,0,0,0,0,0,0,0,0,0,0,0,0,0,0,0,0,0],"sum_hessian":[7.084E1,1.593744E1,5.4902557E1,1.3820372E1,2.1170683E0,2.0997348E0,5.2802822E1,3.1234808E0,1.0696891E1,1.1149039E0,1.0021644E0,6.5757127E0,4.6227108E1,1.1159337E0,2.0075474E0,9.21246E0,1.4844311E0,4.0933666E0,2.482346E0,1.0596426E0,4.5167465E1,3.780637E0,5.431823E0,1.2131301E0,2.8802366E0,1.3225423E0,1.1598037E0,2.9120495E1,1.604697E1,1.8581258E0,1.9225111E0,1.6490364E0,3.7827864E0,1.6105399E0,1.2696966E0,2.0543E0,2.7066196E1,3.9934628E0,1.2053508E1],"tree_param":{"num_deleted":"0","num_feature":"7","num_nodes":"39","size_leaf_vector":"1"}},{"base_weights":[-5.807786E-3,9.714801E-2,-3.5684545E-2,1.7903487E-1,-9.444236E-2,-1.838443E-1,1.3376211E-2,-2.9463686E-2,2.7870712E-1,-6.6770904E-2,-2.1553318E-1,9.94388E-2,-1.2696746E-1,3.697653E-1,-2.0916972E-1,1.12115026E-1,1.7577526E-1,-1.5229446E-1,8.937136E-2,6.1571997E-2,1.4369857E-1,-3.2550627E-1,5.0353378E-2,1.3513684E-1,2.70066E-2,-2.3217009E-1,4.0483975E-1,-4.3588094E-2,-1.8076739E-1,1.0594447E-1,-1.307336E-1,-2.9905394E-2,-2.625387E-1,3.3376503E-1,-2.266941E-1,2.4166727E-2,-1.3004924E-1,2.4856387E-2,1.5927956E-1,-1.1306543E-1,2.5940677E-2,1.2574831E-2,1.0851951E-1,-1.1009442E-1,3.9074235E-2,1.5261114E-1,-4.204031E-3,-1.9284979E-1,1.6367959E-2],"categories":[],"categories_nodes":[],"categories_segments":[],"categories_sizes":[],"default_left":[0,0,0,0,0,0,0,0,0,0,0,0,0,0,0,0,0,0,0,0,0,0,0,0,0,0,0,0,0,0,0,0,0,0,0,0,0,0,0,0,0,0,0,0,0,0,0,0,0],"id":25,"left_children":[1,3,5,7,-1,9,11,13,15,17,-1,19,21,23,-1,25,-1,27,-1,29,-1,31,33,-1,-1,35,37,39,-1,41,-1,43,-1,45,47,-1,-1,-1,-1,-1,-1,-1,-1,-1,-1,-1,-1,-1,-1],"loss_changes":[2.2267796E-1,6.06144E-1,4.0927872E-1,3.0398977E-1,0E0,8.276515E-1,5.3171986E-1,1.726128E0,4.320252E-1,4.377022E-1,0E0,3.6146125E-1,6.069882E-1,5.2006066E-2,0E0,8.541075E-1,0E0,5.0487834E-1,0E0,6.17334E-1,0E0,1.2814472E0,8.394522E-1,0E0,0E0,2.9314762E-1,1.3630712E-1,4.5822355E-1,0E0,3.8716704E-1,0E0,3.8622308E-1,0E0,3.2428765E-1,6.80494E-1,0E0,0E0,0E0,0E0,0E0,0E0,0E0,0E0,0E0,0E0,0E0,0E0,0E0,0E0],"parents":[2147483647,0,0,1,1,2,2,3,3,5,5,6,6,7,7,8,8,9,9,11,11,12,12,13,13,15,15,17,17,19,19,21,21,22,22,25,25,26,26,27,27,29,29,31,31,33,33,34,34],"right_children":[2,4,6,8,-1,10,12,14,16,18,-1,20,22,24,-1,26,-1,28,-1,30,-1,32,34,-1,-1,36,38,40,-1,42,-1,44,-1,46,48,-1,-1,-1,-1,-1,-1,-1,-1,-1,-1,-1,-1,-1,-1],"split_conditions":[1E0,5E1,7.925E0,1.51E1,-9.444236E-2,7.8875E0,1E0,1.2275E1,3.3E1,7.8292E0,-2.1553318E-1,6.2E1,2.9699118E1,2.9699118E1,-2.0916972E-1,1E0,1.7577526E-1,3E1,8.937136E-2,5.3E1,1.4369857E-1,2.5E1,1E0,1.3513684E-1,2.70066E-2,2.85E1,3E0,2.2E1,-1.8076739E-1,4E1,-1.307336E-1,3E0,-2.625387E-1,2.345E1,2.1075E1,2.4166727E-2,-1.3004924E-1,2.4856387E-2,1.5927956E-1,-1.1306543E-1,2.5940677E-2,1.2574831E-2,1.0851951E-1,-1.1009442E-1,3.9074235E-2,1.5261114E-1,-4.204031E-3,-1.9284979E-1,1.6367959E-2],"split_indices":[5,0,2,2,0,2,4,2,0,2,0,0,0,0,0,3,0,0,0,0,0,0,6,0,0,0,1,0,0,0,0,0,0,2,2,0,0,0,0,0,0,0,0,0,0,0,0,0,0],"split_type":[0,0,0,0,0,0,0,0,0,0,0,0,0,0,0,0,0,0,0,0,0,0,0,0,0,0,0,0,0,0,0,0,0,0,0,0,0,0,0,0,0,0,0,0,0,0,0,0,0],"sum_hessian":[7.026538E1,1.5297685E1,5.4967693E1,1.3232739E1,2.0649455E0,1.2990399E1,4.1977295E1,4.507713E0,8.725026E0,1.1579477E1,1.4109216E0,2.6201363E1,1.5775932E1,3.1003938E0,1.4073192E0,6.5422707E0,2.1827555E0,9.851493E0,1.727985E0,2.4881279E1,1.3200835E0,7.0484185E0,8.727513E0,1.9326738E0,1.16772E0,3.1014264E0,3.4408445E0,8.819114E0,1.0323782E0,2.3565777E1,1.3155019E0,5.2690187E0,1.7793999E0,4.213007E0,4.514507E0,1.449604E0,1.6518222E0,1.4345964E0,2.0062482E0,1.9427059E0,6.876408E0,1.9778673E1,3.7871046E0,1.2811401E0,3.9878788E0,2.495169E0,1.7178379E0,1.3022E0,3.212307E0],"tree_param":{"num_deleted":"0","num_feature":"7","num_nodes":"49","size_leaf_vector":"1"}},{"base_weights":[-1.2465188E-2,2.1825203E-1,-2.5488444E-2,-3.6901943E-2,1.5537328E-1,-5.5563893E-2,1.18532084E-1,-2.744021E-2,-1.7905882E-1,1.3667141E-1,-2.4922827E-5,-4.4609055E-2,1.2608099E-1,3.3458427E-1,-1.7987446E-1,-6.194839E-2,1.0380812E-1,2.2346426E-3,1.4853214E-1,-2.9678121E-2,-1.2926266E-1,-6.9903242E-3,-1.257224E-1,-5.8932237E-2,9.883713E-2],"categories":[],"categories_nodes":[],"categories_segments":[],"categories_sizes":[],"default_left":[0,0,0,0,0,0,0,0,0,0,0,0,0,0,0,0,0,0,0,0,0,0,0,0,0],"id":26,"left_children":[1,3,5,-1,-1,7,9,11,-1,-1,13,15,-1,17,19,21,-1,-1,-1,23,-1,-1,-1,-1,-1],"loss_changes":[2.1731332E-1,4.5945895E-1,2.9940853E-1,0E0,0E0,8.4534574E-1,4.7942257E-1,4.4042283E-1,0E0,0E0,6.544905E-1,3.8540968E-1,0E0,1.9596797E-1,2.5388157E-1,7.120826E-1,0E0,0E0,0E0,3.9407986E-1,0E0,0E0,0E0,0E0,0E0],"parents":[2147483647,0,0,1,1,2,2,5,5,6,6,7,7,10,10,11,11,13,13,14,14,15,15,19,19],"right_children":[2,4,6,-1,-1,8,10,12,-1,-1,14,16,-1,18,20,22,-1,-1,-1,24,-1,-1,-1,-1,-1],"split_conditions":[6E0,3E0,5.2E1,-3.6901943E-2,1.5537328E-1,3.675E1,1E0,3.5E1,-1.7905882E-1,1.3667141E-1,5.79792E1,6.2E1,1.2608099E-1,5.5E1,1.345E2,4.55E1,1.0380812E-1,2.2346426E-3,1.4853214E-1,1.089E2,-1.2926266E-1,-6.9903242E-3,-1.257224E-1,-5.8932237E-2,9.883713E-2],"split_indices":[0,0,2,0,0,2,6,2,0,0,2,0,0,2,2,0,0,0,0,2,0,0,0,0,0],"split_type":[0,0,0,0,0,0,0,0,0,0,0,0,0,0,0,0,0,0,0,0,0,0,0,0,0],"sum_hessian":[6.947331E1,2.8700194E0,6.660329E1,1.6174928E0,1.2525268E0,5.5605522E1,1.0997767E1,5.3857975E1,1.7475475E0,2.1221597E0,8.875608E0,5.273601E1,1.1219655E0,2.8020506E0,6.073558E0,5.1300335E1,1.4356735E0,1.2667983E0,1.5352522E0,4.4994025E0,1.5741552E0,4.725208E1,4.048256E0,3.382003E0,1.1173992E0],"tree_param":{"num_deleted":"0","num_feature":"7","num_nodes":"25","size_leaf_vector":"1"}},{"base_weights":[-5.651549E-3,9.827797E-2,-3.5318278E-2,2.710529E-1,-3.9763752E-2,-6.2155336E-2,1.7179741E-1,4.0500352E-1,-4.231573E-2,-2.2827019E-1,2.3959526E-1,-2.1988496E-2,-3.5885707E-1,1.9245872E-1,-4.4112857E-2,-2.9073443E-2,5.8563364E-1,-3.600719E-1,6.199472E-2,3.765356E-1,-2.2739215E-2,-1.0603551E-1,7.0850916E-2,-2.0229504E-1,-1.0069286E-1,1.1822948E-1,-3.0691215E-1,7.1614725E-3,2.4749112E-1,3.4164E-2,-1.5562843E-1,2.5412416E-2,1.4581767E-1,4.176888E-2,-2.9324135E-1,-3.882188E-1,1.8420148E-1,1.5994507E-1,-4.6806097E-1,-1.4746788E-1,4.8081586E-4,-3.3048946E-2,1.3223757E-1,-1.9937108E-1,-1.5073293E-2,-1.5859559E-1,-6.014171E-2,1.8600732E-1,3.4105346E-2,-3.5336748E-2,-1.8086748E-1],"categories":[],"categories_nodes":[],"categories_segments":[],"categories_sizes":[],"default_left":[0,0,0,0,0,0,0,0,0,0,0,0,0,0,0,0,0,0,0,0,0,0,0,0,0,0,0,0,0,0,0,0,0,0,0,0,0,0,0,0,0,0,0,0,0,0,0,0,0,0,0],"id":27,"left_children":[1,3,5,7,9,11,13,15,-1,17,19,21,23,-1,25,-1,27,29,-1,31,-1,33,35,-1,37,-1,39,-1,-1,-1,-1,-1,-1,41,43,45,47,-1,49,-1,-1,-1,-1,-1,-1,-1,-1,-1,-1,-1,-1],"loss_changes":[2.1871622E-1,3.8681892E-1,3.1663534E-1,4.5073646E-1,5.6215626E-1,5.816055E-1,6.956315E-1,5.6804365E-1,0E0,4.335919E-1,2.1730164E-1,3.5576904E-1,4.0711594E-1,0E0,7.47839E-1,0E0,5.5697596E-1,4.4816816E-1,0E0,6.1582E-2,0E0,6.7150146E-1,1.206209E0,0E0,1.2701832E0,0E0,2.2666061E-1,0E0,0E0,0E0,0E0,0E0,0E0,9.087743E-1,9.263528E-1,1.6353011E-2,4.878155E-1,0E0,8.518487E-2,0E0,0E0,0E0,0E0,0E0,0E0,0E0,0E0,0E0,0E0,0E0,0E0],"parents":[2147483647,0,0,1,1,2,2,3,3,4,4,5,5,6,6,7,7,9,9,10,10,11,11,12,12,14,14,16,16,17,17,19,19,21,21,22,22,24,24,26,26,33,33,34,34,35,35,36,36,38,38],"right_children":[2,4,6,8,10,12,14,16,-1,18,20,22,24,-1,26,-1,28,30,-1,32,-1,34,36,-1,38,-1,40,-1,-1,-1,-1,-1,-1,42,44,46,48,-1,50,-1,-1,-1,-1,-1,-1,-1,-1,-1,-1,-1,-1],"split_conditions":[1E0,2.9699118E1,4.8E1,7.72875E1,3.1E1,3.65E1,1E0,7.25E0,-4.231573E-2,1E0,9E1,2.9699118E1,4.1E1,1.9245872E-1,5.2E1,-2.9073443E-2,1.9E1,7.925E0,6.199472E-2,4.9E1,-2.2739215E-2,1.2875E1,7.775E0,-2.0229504E-1,1.38583E1,1.1822948E-1,6.2E1,7.1614725E-3,2.4749112E-1,3.4164E-2,-1.5562843E-1,2.5412416E-2,1.4581767E-1,2.7E1,2.16792E1,7.7417E0,7.8875E0,1.5994507E-1,2.7E1,-1.4746788E-1,4.8081586E-4,-3.3048946E-2,1.3223757E-1,-1.9937108E-1,-1.5073293E-2,-1.5859559E-1,-6.014171E-2,1.8600732E-1,3.4105346E-2,-3.5336748E-2,-1.8086748E-1],"split_indices":[5,0,0,2,2,0,6,2,0,3,2,0,0,0,0,0,0,2,0,0,0,2,2,0,2,0,0,0,0,0,0,0,0,0,2,2,2,0,2,0,0,0,0,0,0,0,0,0,0,0,0],"split_type":[0,0,0,0,0,0,0,0,0,0,0,0,0,0,0,0,0,0,0,0,0,0,0,0,0,0,0,0,0,0,0,0,0,0,0,0,0,0,0,0,0,0,0,0,0,0,0,0,0,0,0],"sum_hessian":[6.881117E1,1.4766814E1,5.4044353E1,6.130384E0,8.636431E0,4.8464462E1,5.579892E0,4.6395717E0,1.4908123E0,5.2659445E0,3.370486E0,4.3631794E1,4.8326683E0,1.136362E0,4.4435306E0,1.3504822E0,3.2890892E0,4.1733203E0,1.0926243E0,2.2149246E0,1.1555613E0,2.2825687E1,2.0806107E1,1.4495027E0,3.3831656E0,1.4785197E0,2.9650106E0,1.3112092E0,1.97788E0,1.1176499E0,3.0556703E0,1.0883672E0,1.1265574E0,1.3189266E1,9.636421E0,3.6398358E0,1.7166271E1,1.0757821E0,2.3073833E0,1.4837004E0,1.4813104E0,1.00764675E1,3.1127987E0,3.1254559E0,6.510965E0,1.0435159E0,2.59632E0,1.3054602E0,1.5860811E1,1.1620754E0,1.145308E0],"tree_param":{"num_deleted":"0","num_feature":"7","num_nodes":"51","size_leaf_vector":"1"}},{"base_weights":[-3.919393E-3,6.645498E-3,-9.3292296E-2,-8.119075E-3,1.3191265E-1,-6.0466103E-2,7.714443E-2,-1.9467108E-2,-4.80111E-1,3.4527904E-1,-1.7128998E-2,3.5831027E-2,-3.7047446E-1,-3.150773E-1,6.1440036E-2,2.8109324E-1,6.73545E-2,-1.3891867E-1,5.827424E-2,-6.8302834E-3,5.398477E-2,-1.891871E-1,-1.2043109E-2,-7.696592E-2,1.4979479E-1,8.0817305E-2,-1.2815419E-2],"categories":[],"categories_nodes":[],"categories_segments":[],"categories_sizes":[],"default_left":[0,0,0,0,0,0,0,0,0,0,0,0,0,0,0,0,0,0,0,0,0,0,0,0,0,0,0],"id":28,"left_children":[1,3,-1,5,-1,7,9,11,13,15,17,19,21,-1,-1,-1,23,-1,25,-1,-1,-1,-1,-1,-1,-1,-1],"loss_changes":[2.2680816E-1,4.3806618E-1,0E0,3.0234504E-1,0E0,7.112859E-1,6.583455E-1,7.7413565E-1,1.6543417E0,1.0487704E0,7.0112723E-1,2.9778594E-1,4.407298E-1,0E0,0E0,0E0,9.225277E-1,0E0,3.9608663E-1,0E0,0E0,0E0,0E0,0E0,0E0,0E0,0E0],"parents":[2147483647,0,0,1,1,3,3,5,5,6,6,7,7,8,8,9,9,10,10,11,11,12,12,16,16,18,18],"right_children":[2,4,-1,6,-1,8,10,12,14,16,18,20,22,-1,-1,-1,24,-1,26,-1,-1,-1,-1,-1,-1,-1,-1],"split_conditions":[6.4E1,6E1,-9.3292296E-2,2.2025E1,1.3191265E-1,1.78E1,2.7E1,3.45E1,1E0,2E0,2.97E1,1.11333E1,4.2E1,-3.150773E-1,6.1440036E-2,2.8109324E-1,2.62833E1,-1.3891867E-1,3.675E1,-6.8302834E-3,5.398477E-2,-1.891871E-1,-1.2043109E-2,-7.696592E-2,1.4979479E-1,8.0817305E-2,-1.2815419E-2],"split_indices":[0,0,0,2,0,2,2,0,3,5,2,2,0,0,0,0,2,0,2,0,0,0,0,0,0,0,0],"split_type":[0,0,0,0,0,0,0,0,0,0,0,0,0,0,0,0,0,0,0,0,0,0,0,0,0,0,0],"sum_hessian":[6.827912E1,6.695379E1,1.3253331E0,6.569527E1,1.2585187E0,4.0885E1,2.4810272E1,3.819934E1,2.6856577E0,5.761307E0,1.9048965E1,3.3776127E1,4.4232135E0,1.1745199E0,1.5111378E0,1.0834069E0,4.6779E0,2.0115504E0,1.7037415E1,2.4611202E1,9.164925E0,1.9659103E0,2.4573033E0,2.9053721E0,1.7725277E0,4.9734187E0,1.2063995E1],"tree_param":{"num_deleted":"0","num_feature":"7","num_nodes":"27","size_leaf_vector":"1"}},{"base_weights":[-4.5714485E-3,2.1586184E-1,-1.7329188E-2,-1.6677795E-2,1.3182366E-1,6.775492E-3,-2.4507803E-1,-2.894047E-2,1.17188685E-1,7.024634E-2,-5.299204E-1,-1.2745471E-1,3.2409623E-2,1.8162045E-1,2.3563953E-2,-2.1173106E-1,1.4150237E-3,-1.0220075E-2,-4.3787155E-1,8.469162E-2,-2.4692076E-1,1.3282208E-1,-8.544619E-2,2.8364174E-2,-2.0140758E-1,-3.969466E-2,-1.897888E-1,-9.431838E-2,3.8290985E-2,-3.6508648E-4,-1.0750662E-1,-5.9713252E-2,6.781158E-2],"categories":[],"categories_nodes":[],"categories_segments":[],"categories_sizes":[],"default_left":[0,0,0,0,0,0,0,0,0,0,0,0,0,0,0,0,0,0,0,0,0,0,0,0,0,0,0,0,0,0,0,0,0],"id":29,"left_children":[1,3,5,-1,-1,7,9,11,13,-1,15,17,19,-1,21,-1,-1,23,25,27,29,-1,31,-1,-1,-1,-1,-1,-1,-1,-1,-1,-1],"loss_changes":[1.971538E-1,2.5727093E-1,3.6365166E-1,0E0,0E0,2.423718E-1,9.8923427E-1,2.8572094E-1,6.7181075E-1,0E0,4.058659E-1,6.5358365E-1,4.518517E-1,0E0,6.608734E-1,0E0,0E0,1.0435492E0,2.0986634E-1,4.7889298E-1,1.3393602E-1,0E0,4.5753914E-1,0E0,0E0,0E0,0E0,0E0,0E0,0E0,0E0,0E0,0E0],"parents":[2147483647,0,0,1,1,2,2,5,5,6,6,7,7,8,8,10,10,11,11,12,12,14,14,17,17,18,18,19,19,20,20,22,22],"right_children":[2,4,6,-1,-1,8,10,12,14,-1,16,18,20,-1,22,-1,-1,24,26,28,30,-1,32,-1,-1,-1,-1,-1,-1,-1,-1,-1,-1],"split_conditions":[6E0,3E0,2E0,-1.6677795E-2,1.3182366E-1,2.9E1,2.5E1,2.9E1,1E0,7.024634E-2,3E1,1.2875E1,4.55E1,1.8162045E-1,3.06958E1,-2.1173106E-1,1.4150237E-3,2.8E1,2.5E1,7.7333E0,1.05167E1,1.3282208E-1,4.8E1,2.8364174E-2,-2.0140758E-1,-3.969466E-2,-1.897888E-1,-9.431838E-2,3.8290985E-2,-3.6508648E-4,-1.0750662E-1,-5.9713252E-2,6.781158E-2],"split_indices":[0,0,3,0,0,2,0,0,6,0,0,2,0,0,2,0,0,0,0,2,2,0,0,0,0,0,0,0,0,0,0,0,0],"split_type":[0,0,0,0,0,0,0,0,0,0,0,0,0,0,0,0,0,0,0,0,0,0,0,0,0,0,0,0,0,0,0,0,0],"sum_hessian":[6.777568E1,2.8369892E0,6.493869E1,1.6205246E0,1.2164645E0,5.9600857E1,5.337837E0,4.559113E1,1.4009725E1,2.0562518E0,3.2815857E0,1.7082706E1,2.8508425E1,1.374748E0,1.2634976E1,2.228506E0,1.0530795E0,1.3149486E1,3.9332216E0,2.4600733E1,3.9076905E0,1.9758373E0,1.065914E1,1.2090549E1,1.0589356E0,2.1848264E0,1.7483952E0,1.7759575E0,2.2824776E1,1.534709E0,2.3729815E0,8.075134E0,2.5840054E0],"tree_param":{"num_deleted":"0","num_feature":"7","num_nodes":"33","size_leaf_vector":"1"}},{"base_weights":[-7.3717255E-3,9.051281E-2,-3.4756336E-2,1.6929603E-1,-8.5733354E-2,-1.5717417E-1,6.332552E-3,8.061586E-2,1.21777855E-1,-5.620997E-2,-1.9595349E-1,6.520583E-2,-9.3163915E-2,2.4876513E-1,-1.6604237E-1,-9.939229E-2,1.2709494E-2,2.7043906E-1,4.6679727E-3,-1.4340974E-1,8.9653164E-2,3.3988073E-1,-3.9991625E-2,5.7593316E-2,-3.036219E-1,-8.793919E-2,1.1935292E-1,6.0555663E-2,1.867349E-1,7.030493E-2,-2.4820232E-1,-6.1768476E-2,-1.6066395E-1,-2.243581E-2,1.4366814E-1,-1.574085E-1,5.1485352E-2,4.0256515E-2,-8.311039E-2,1.1929673E-1,-1.1598774E-1,-3.7652038E-3,9.631485E-2,-1.3776228E-1,6.2539265E-2,-6.628295E-2,4.2947706E-2],"categories":[],"categories_nodes":[],"categories_segments":[],"categories_sizes":[],"default_left":[0,0,0,0,0,0,0,0,0,0,0,0,0,0,0,0,0,0,0,0,0,0,0,0,0,0,0,0,0,0,0,0,0,0,0,0,0,0,0,0,0,0,0,0,0,0,0],"id":30,"left_children":[1,3,5,7,-1,9,11,13,-1,15,-1,17,19,21,23,-1,25,27,29,31,-1,33,-1,-1,35,37,-1,39,-1,41,43,45,-1,-1,-1,-1,-1,-1,-1,-1,-1,-1,-1,-1,-1,-1,-1],"loss_changes":[1.8649897E-1,4.9989527E-1,2.7347752E-1,2.4472663E-1,0E0,6.469517E-1,2.492825E-1,4.9194804E-1,0E0,2.4001305E-1,0E0,3.3013338E-1,3.549798E-1,2.8416237E-1,3.047739E-1,0E0,4.5783582E-1,4.098845E-1,3.7620705E-1,4.3823087E-1,0E0,3.7140137E-1,0E0,0E0,5.105446E-1,4.348365E-1,0E0,8.9284325E-1,0E0,3.7674108E-1,5.46214E-1,4.6596524E-1,0E0,0E0,0E0,0E0,0E0,0E0,0E0,0E0,0E0,0E0,0E0,0E0,0E0,0E0,0E0],"parents":[2147483647,0,0,1,1,2,2,3,3,5,5,6,6,7,7,9,9,11,11,12,12,13,13,14,14,16,16,17,17,18,18,19,19,21,21,24,24,25,25,27,27,29,29,30,30,31,31],"right_children":[2,4,6,8,-1,10,12,14,-1,16,-1,18,20,22,24,-1,26,28,30,32,-1,34,-1,-1,36,38,-1,40,-1,42,44,46,-1,-1,-1,-1,-1,-1,-1,-1,-1,-1,-1,-1,-1,-1,-1],"split_conditions":[1E0,5E1,7.925E0,3.5E1,-8.5733354E-2,7.8875E0,1E0,2.9699118E1,1.21777855E-1,1.9E1,-1.9595349E-1,1E0,4.7E1,1.06425E2,7.925E0,-9.939229E-2,7.8292E0,4E1,3.06958E1,3.65E1,8.9653164E-2,7.25E0,-3.9991625E-2,5.7593316E-2,1E0,2.9699118E1,1.1935292E-1,2.85E1,1.867349E-1,2.625E1,3E0,2.9699118E1,-1.6066395E-1,-2.243581E-2,1.4366814E-1,-1.574085E-1,5.1485352E-2,4.0256515E-2,-8.311039E-2,1.1929673E-1,-1.1598774E-1,-3.7652038E-3,9.631485E-2,-1.3776228E-1,6.2539265E-2,-6.628295E-2,4.2947706E-2],"split_indices":[5,0,2,0,0,2,4,0,0,0,0,6,0,2,2,0,2,0,2,0,0,2,0,0,3,0,0,0,0,2,1,0,0,0,0,0,0,0,0,0,0,0,0,0,0,0,0],"split_type":[0,0,0,0,0,0,0,0,0,0,0,0,0,0,0,0,0,0,0,0,0,0,0,0,0,0,0,0,0,0,0,0,0,0,0,0,0,0,0,0,0,0,0,0,0,0,0],"sum_hessian":[6.7401794E1,1.4230509E1,5.3171288E1,1.2221757E1,2.008752E0,1.2651858E1,4.0519432E1,9.865295E0,2.3564618E0,1.1437103E1,1.2147555E0,2.5673027E1,1.4846403E1,5.8611507E0,4.004144E0,1.5285603E0,9.908543E0,5.0580707E0,2.0614956E1,1.3721773E1,1.1246303E0,4.8217025E0,1.0394483E0,1.0017968E0,3.0023475E0,8.467388E0,1.4411547E0,3.9029796E0,1.1550909E0,1.6939882E1,3.675074E0,1.2315296E1,1.4064766E0,1.3265911E0,3.4951112E0,1.9781045E0,1.0242431E0,4.0271378E0,4.4402504E0,2.288548E0,1.6144317E0,1.3446568E1,3.493315E0,2.5098293E0,1.1652447E0,6.887427E0,5.4278693E0],"tree_param":{"num_deleted":"0","num_feature":"7","num_nodes":"47","size_leaf_vector":"1"}},{"base_weights":[-6.2691304E-3,3.7218756E-3,-8.801608E-2,-8.462985E-3,1.0499609E-1,-5.508278E-2,6.935361E-2,-2.1213444E-2,-4.1376963E-1,2.9419973E-1,-1.1358719E-2,-5.630269E-2,3.9178982E-1,-2.7311003E-1,5.516227E-2,2.3633465E-1,6.009708E-2,-1.145387E-1,5.101205E-2,3.861527E-3,-1.2130187E-1,1.5680617E-1,1.9003816E-2,-4.6367057E-2,1.2938365E-1,5.8584977E-2,-6.596691E-3],"categories":[],"categories_nodes":[],"categories_segments":[],"categories_sizes":[],"default_left":[0,0,0,0,0,0,0,0,0,0,0,0,0,0,0,0,0,0,0,0,0,0,0,0,0,0,0],"id":31,"left_children":[1,3,-1,5,-1,7,9,11,13,15,17,19,21,-1,-1,-1,23,-1,25,-1,-1,-1,-1,-1,-1,-1,-1],"loss_changes":[1.9450703E-1,2.8204098E-1,0E0,2.3916627E-1,0E0,4.9083945E-1,4.5245013E-1,5.819071E-1,1.2044474E0,7.122833E-1,4.624604E-1,8.83489E-1,1.0235107E-1,0E0,0E0,0E0,5.081971E-1,0E0,1.8641533E-1,0E0,0E0,0E0,0E0,0E0,0E0,0E0,0E0],"parents":[2147483647,0,0,1,1,3,3,5,5,6,6,7,7,8,8,9,9,10,10,11,11,12,12,16,16,18,18],"right_children":[2,4,-1,6,-1,8,10,12,14,16,18,20,22,-1,-1,-1,24,-1,26,-1,-1,-1,-1,-1,-1,-1,-1],"split_conditions":[6.4E1,6E1,-8.801608E-2,2.2025E1,1.0499609E-1,1.78E1,2.7E1,1.57417E1,1E0,2E0,2.97E1,3.3E1,1.61E1,-2.7311003E-1,5.516227E-2,2.3633465E-1,4.5E1,-1.145387E-1,3.675E1,3.861527E-3,-1.2130187E-1,1.5680617E-1,1.9003816E-2,-4.6367057E-2,1.2938365E-1,5.8584977E-2,-6.596691E-3],"split_indices":[0,0,0,2,0,2,2,2,3,5,2,0,2,0,0,0,0,0,2,0,0,0,0,0,0,0,0],"split_type":[0,0,0,0,0,0,0,0,0,0,0,0,0,0,0,0,0,0,0,0,0,0,0,0,0,0,0],"sum_hessian":[6.642501E1,6.514516E1,1.279857E0,6.387306E1,1.2720953E0,4.0125866E1,2.3747192E1,3.7631607E1,2.4942572E0,5.574069E0,1.8173122E1,3.5480793E1,2.1508152E0,1.0765039E0,1.4177533E0,1.0323488E0,4.5417204E0,1.880851E0,1.6292273E1,3.0401354E1,5.0794387E0,1.1150284E0,1.0357869E0,3.2473757E0,1.2943447E0,4.9112134E0,1.1381059E1],"tree_param":{"num_deleted":"0","num_feature":"7","num_nodes":"27","size_leaf_vector":"1"}},{"base_weights":[-3.2138666E-3,2.1259257E-1,-1.574112E-2,1.1633516E-1,-2.3161035E-2,4.379209E-3,-2.0451853E-1,-1.1051858E-1,5.0365724E-2,6.004425E-2,-4.4821098E-1,2.4750339E-2,-2.4432696E-1,1.7392056E-1,1.3812003E-2,-1.7926933E-1,2.4439988E-3,1.9374418E-1,-1.1038425E-1,-2.1851046E-1,-1.7214093E-2,-3.5227394E-1,4.379816E-2,1.191897E-1,-4.6274923E-3,9.128402E-2,-7.7432714E-2,1.0807485E-1,-4.3890275E-2,4.9375173E-2,-2.0927374E-1,-8.319057E-2,1.9876279E-2],"categories":[],"categories_nodes":[],"categories_segments":[],"categories_sizes":[],"default_left":[0,0,0,0,0,0,0,0,0,0,0,0,0,0,0,0,0,0,0,0,0,0,0,0,0,0,0,0,0,0,0,0,0],"id":32,"left_children":[1,3,5,-1,-1,7,9,11,13,-1,15,17,19,-1,21,-1,-1,23,25,-1,27,29,31,-1,-1,-1,-1,-1,-1,-1,-1,-1,-1],"loss_changes":[1.8404564E-1,2.1961558E-1,2.4437912E-1,0E0,0E0,3.1682494E-1,7.006457E-1,3.164871E-1,8.1936634E-1,0E0,2.8945655E-1,2.3690061E-1,9.4542724E-1,0E0,4.6572694E-1,0E0,0E0,2.0011848E-1,4.3878058E-1,0E0,3.9161217E-1,6.888104E-1,2.9817384E-1,0E0,0E0,0E0,0E0,0E0,0E0,0E0,0E0,0E0,0E0],"parents":[2147483647,0,0,1,1,2,2,5,5,6,6,7,7,8,8,10,10,11,11,12,12,14,14,17,17,18,18,20,20,21,21,22,22],"right_children":[2,4,6,-1,-1,8,10,12,14,-1,16,18,20,-1,22,-1,-1,24,26,-1,28,30,32,-1,-1,-1,-1,-1,-1,-1,-1,-1,-1],"split_conditions":[6E0,3E0,2E0,1.1633516E-1,-2.3161035E-2,2.7E1,2.5E1,8.1125E0,2.8E1,6.004425E-2,3E1,1E0,1.04625E1,1.7392056E-1,2.9E1,-1.7926933E-1,2.4439988E-3,7.7375E0,7.2292E0,-2.1851046E-1,1.265E1,3E0,7.7333E0,1.191897E-1,-4.6274923E-3,9.128402E-2,-7.7432714E-2,1.0807485E-1,-4.3890275E-2,4.9375173E-2,-2.0927374E-1,-8.319057E-2,1.9876279E-2],"split_indices":[0,4,3,0,0,0,0,2,0,0,0,6,2,0,0,0,0,2,2,0,2,1,2,0,0,0,0,0,0,0,0,0,0],"split_type":[0,0,0,0,0,0,0,0,0,0,0,0,0,0,0,0,0,0,0,0,0,0,0,0,0,0,0,0,0,0,0,0,0],"sum_hessian":[6.583993E1,2.7360315E0,6.31039E1,1.4944562E0,1.2415754E0,5.7908665E1,5.1952357E0,1.6151268E1,4.1757397E1,2.0198467E0,3.175389E0,8.437103E0,7.7141643E0,1.7373502E0,4.0020046E1,2.159291E0,1.0160983E0,3.556178E0,4.880925E0,1.7587337E0,5.9554305E0,2.216161E0,3.7803883E1,1.3464519E0,2.2097263E0,1.0037149E0,3.8772101E0,1.0613058E0,4.8941245E0,1.097209E0,1.118952E0,1.729214E0,3.607467E1],"tree_param":{"num_deleted":"0","num_feature":"7","num_nodes":"33","size_leaf_vector":"1"}},{"base_weights":[-4.5155063E-3,4.3459507E-3,-7.8142285E-2,-2.12124E-2,1.3283591E-1,3.5507404E-4,-1.5606904E-1,3.2079396E-1,7.1785185E-3,-2.1242449E-2,1.5127623E-1,1.5739408E-1,1.0179308E-1,-1.6885895E-1,2.1280168E-1,5.0296824E-2,-1.2852444E-1,-4.9264703E-2,1.0437774E-1,2.0961355E-2,-9.7009584E-2,-4.6532225E-2,1.861701E-1,-1.1578813E-2,8.189895E-2,-1.9828896E-1,-1.4544176E-2],"categories":[],"categories_nodes":[],"categories_segments":[],"categories_sizes":[],"default_left":[0,0,0,0,0,0,0,0,0,0,0,0,0,0,0,0,0,0,0,0,0,0,0,0,0,0,0],"id":33,"left_children":[1,3,-1,5,7,9,-1,11,13,15,-1,-1,17,19,21,23,25,-1,-1,-1,-1,-1,-1,-1,-1,-1,-1],"loss_changes":[1.5113872E-1,2.1596919E-1,0E0,5.921232E-1,2.5528723E-1,5.953507E-1,0E0,1.4066207E-1,3.0956268E-1,4.091823E-1,0E0,0E0,2.7557847E-1,1.9338198E-1,6.8570334E-1,6.4795953E-1,8.745922E-1,0E0,0E0,0E0,0E0,0E0,0E0,0E0,0E0,0E0,0E0],"parents":[2147483647,0,0,1,1,3,3,4,4,5,5,7,7,8,8,9,9,12,12,13,13,14,14,15,15,16,16],"right_children":[2,4,-1,6,8,10,-1,12,14,16,-1,-1,18,20,22,24,26,-1,-1,-1,-1,-1,-1,-1,-1,-1,-1],"split_conditions":[6.4E1,5.2E1,-7.8142285E-2,3.96E1,6.66E1,3.55E1,-1.5606904E-1,2.8E1,3.25E1,1.4E1,1.5127623E-1,1.5739408E-1,1E0,2.35E1,1.2E2,9.5E0,1.52458E1,-4.9264703E-2,1.0437774E-1,2.0961355E-2,-9.7009584E-2,-4.6532225E-2,1.861701E-1,-1.1578813E-2,8.189895E-2,-1.9828896E-1,-1.4544176E-2],"split_indices":[0,2,0,2,2,2,0,0,0,2,0,0,4,0,2,2,2,0,0,0,0,0,0,0,0,0,0],"split_type":[0,0,0,0,0,0,0,0,0,0,0,0,0,0,0,0,0,0,0,0,0,0,0,0,0,0,0],"sum_hessian":[6.513564E1,6.3906193E1,1.2294527E0,5.3999825E1,9.906368E0,5.272054E1,1.2792859E0,3.3470032E0,6.5593653E0,5.147224E1,1.2482984E0,1.0106342E0,2.336369E0,3.630245E0,2.92912E0,3.1198915E1,2.0273325E1,1.2827977E0,1.0535715E0,1.6415846E0,1.9886603E0,1.8655397E0,1.0635804E0,2.2889162E1,8.309754E0,1.7010047E0,1.857232E1],"tree_param":{"num_deleted":"0","num_feature":"7","num_nodes":"27","size_leaf_vector":"1"}},{"base_weights":[-2.8806876E-3,9.837367E-2,-3.0535365E-2,1.7144139E-1,-7.3417604E-2,-2.2664925E-1,-1.5492822E-2,4.56821E-3,2.510447E-1,1.9697648E-2,-1.12989604E-1,7.287229E-2,-6.2856875E-2,3.0923483E-1,-1.7052242E-1,1.1702831E-1,1.3631678E-1,1.4667866E-1,-2.058881E-1,9.6482664E-2,-8.595814E-2,3.3408955E-2,1.1879725E-1,-1.2037557E-1,2.971805E-1,5.354089E-2,1.4518684E-1,-1.10001E-1,3.2177273E-2,-4.422261E-2,-3.9174825E-1,1.6491918E-2,-7.078544E-2,1.1767506E-1,3.4380388E-2,1.1527566E-1,-3.518119E-2,4.990071E-3,-3.945299E-2,-3.1471245E-2,-1.4053488E-1],"categories":[],"categories_nodes":[],"categories_segments":[],"categories_sizes":[],"default_left":[0,0,0,0,0,0,0,0,0,0,0,0,0,0,0,0,0,0,0,0,0,0,0,0,0,0,0,0,0,0,0,0,0,0,0,0,0,0,0,0,0],"id":34,"left_children":[1,3,5,7,-1,9,11,13,15,-1,-1,17,19,21,-1,23,-1,25,27,-1,29,-1,-1,31,33,35,-1,-1,-1,37,39,-1,-1,-1,-1,-1,-1,-1,-1,-1,-1],"loss_changes":[1.8705109E-1,4.0138447E-1,1.5104228E-1,1.6367823E-1,0E0,1.8513723E-1,2.1272254E-1,1.0531298E0,1.7525065E-1,0E0,0E0,3.9677876E-1,3.1997514E-1,2.3346186E-2,0E0,3.0946216E-1,0E0,4.349663E-1,2.4806738E-1,0E0,3.889957E-1,0E0,0E0,8.334771E-2,2.3204923E-2,7.580168E-1,0E0,0E0,0E0,1.569851E-1,3.2179415E-2,0E0,0E0,0E0,0E0,0E0,0E0,0E0,0E0,0E0,0E0],"parents":[2147483647,0,0,1,1,2,2,3,3,5,5,6,6,7,7,8,8,11,11,12,12,13,13,15,15,17,17,18,18,20,20,23,23,24,24,25,25,29,29,30,30],"right_children":[2,4,6,8,-1,10,12,14,16,-1,-1,18,20,22,-1,24,-1,26,28,-1,30,-1,-1,32,34,36,-1,-1,-1,38,40,-1,-1,-1,-1,-1,-1,-1,-1,-1,-1],"split_conditions":[1E0,5E1,7.65E0,1.51E1,-7.3417604E-2,7.0458E0,1E0,1.2275E1,3.3E1,1.9697648E-2,-1.12989604E-1,2E0,4E0,2.9E1,-1.7052242E-1,1E0,1.3631678E-1,2.55875E1,2E0,9.6482664E-2,1E0,3.3408955E-2,1.1879725E-1,2.85E1,2.35E1,2E0,1.4518684E-1,-1.10001E-1,3.2177273E-2,1.34167E1,1.7E1,1.6491918E-2,-7.078544E-2,1.1767506E-1,3.4380388E-2,1.1527566E-1,-3.518119E-2,4.990071E-3,-3.945299E-2,-3.1471245E-2,-1.4053488E-1],"split_indices":[5,0,2,2,0,2,6,2,0,0,0,3,0,0,0,3,0,2,4,0,3,0,0,0,0,5,0,0,0,2,0,0,0,0,0,0,0,0,0,0,0],"split_type":[0,0,0,0,0,0,0,0,0,0,0,0,0,0,0,0,0,0,0,0,0,0,0,0,0,0,0,0,0,0,0,0,0,0,0,0,0,0,0,0,0],"sum_hessian":[6.472747E1,1.3337299E1,5.1390175E1,1.14081E1,1.9291989E0,2.6588445E0,4.873133E1,4.025918E0,7.3821826E0,1.0922785E0,1.566566E0,1.681735E1,3.1913979E1,2.9288642E0,1.0970536E0,5.39926E0,1.9829224E0,1.3671433E1,3.1459172E0,1.0764991E0,3.083748E1,1.5887972E0,1.340067E0,2.4726384E0,2.9266217E0,1.1621068E1,2.0503654E0,1.965714E0,1.1802032E0,2.8141258E1,2.6962204E0,1.1906186E0,1.2820196E0,1.1693523E0,1.7572694E0,3.5323849E0,8.088683E0,1.7057983E1,1.1083277E1,1.0683923E0,1.6278282E0],"tree_param":{"num_deleted":"0","num_feature":"7","num_nodes":"41","size_leaf_vector":"1"}},{"base_weights":[-6.9875026E-4,-2.0163724E-2,9.741094E-2,2.9343916E-3,-1.5268958E-1,3.1586128E-1,-1.8054487E-2,9.2452675E-2,-1.4256987E-2,1.4320854E-2,1.3186313E-1,6.1049342E-2,-1.1053501E-1,-2.7521823E-2,9.15129E-2,-2.527371E-1,6.380009E-2,-7.5604757E-3,-1.1550937E-1,-1.0227926E-1,-2.0415151E-2,8.605051E-2,-7.2144136E-2,-9.51337E-3,1.1447629E-1],"categories":[],"categories_nodes":[],"categories_segments":[],"categories_sizes":[],"default_left":[0,0,0,0,0,0,0,0,0,0,0,0,0,0,0,0,0,0,0,0,0,0,0,0,0],"id":35,"left_children":[1,3,5,7,-1,9,11,-1,13,-1,-1,-1,15,17,-1,19,21,23,-1,-1,-1,-1,-1,-1,-1],"loss_changes":[1.2593104E-1,6.2241906E-1,2.811005E-1,2.851811E-1,0E0,1.0601437E-1,1.8822686E-1,0E0,2.2699372E-1,0E0,0E0,0E0,1.73663E-1,3.572623E-1,0E0,3.708951E-2,3.169067E-1,4.7093287E-1,0E0,0E0,0E0,0E0,0E0,0E0,0E0],"parents":[2147483647,0,0,1,1,2,2,3,3,5,5,6,6,8,8,12,12,13,13,15,15,16,16,17,17],"right_children":[2,4,6,8,-1,10,12,-1,14,-1,-1,-1,16,18,-1,20,22,24,-1,-1,-1,-1,-1,-1,-1],"split_conditions":[5.14792E1,3.675E1,6.1175E1,6E0,-1.5268958E-1,5.5E1,1E0,9.2452675E-2,3.5E1,1.4320854E-2,1.3186313E-1,6.1049342E-2,1E0,3.06958E1,9.15129E-2,8.65E1,3.65E1,2.97E1,-1.1550937E-1,-1.0227926E-1,-2.0415151E-2,8.605051E-2,-7.2144136E-2,-9.51337E-3,1.1447629E-1],"split_indices":[2,2,2,0,0,2,6,0,2,0,0,0,3,2,0,2,0,2,0,0,0,0,0,0,0],"split_type":[0,0,0,0,0,0,0,0,0,0,0,0,0,0,0,0,0,0,0,0,0,0,0,0,0],"sum_hessian":[6.3914234E1,5.3995914E1,9.918319E0,5.2508636E1,1.4872776E0,2.8295372E0,7.0887814E0,1.8971771E0,5.061146E1,1.3307114E0,1.4988258E0,1.7340766E0,5.354705E0,4.9470104E1,1.141355E0,2.7014549E0,2.65325E0,4.7821182E1,1.6489228E0,1.2557824E0,1.4456726E0,1.5641072E0,1.0891428E0,4.5891632E1,1.92955E0],"tree_param":{"num_deleted":"0","num_feature":"7","num_nodes":"25","size_leaf_vector":"1"}},{"base_weights":[1.142483E-3,9.1644295E-2,-2.356929E-2,1.5030167E-1,-5.710117E-2,-1.17098734E-1,7.970118E-3,2.9542963E-3,2.2202908E-1,-3.118439E-2,-1.7151248E-1,1.9858739E-1,-3.204786E-2,1.9376834E-1,-9.0221636E-2,-2.1673605E-2,2.7368158E-1,3.2881472E-2,-9.522639E-2,1.4439918E-1,3.6032837E-2,-1.2814443E-1,6.7615053E-3,-1.5013258E-2,1.0445092E-1,3.833925E-1,-1.4103645E-2,-8.772932E-2,1.16537E-1,-5.092087E-2,2.2079735E-1,1.504594E-1,-2.7976362E-2,1.7477469E-1,5.618496E-2,-2.119233E-2,8.228923E-2,1.4678638E-1,-4.6361793E-2,-5.117296E-2,1.8617097E-2],"categories":[],"categories_nodes":[],"categories_segments":[],"categories_sizes":[],"default_left":[0,0,0,0,0,0,0,0,0,0,0,0,0,0,0,0,0,0,0,0,0,0,0,0,0,0,0,0,0,0,0,0,0,0,0,0,0,0,0,0,0],"id":36,"left_children":[1,3,5,7,-1,9,11,13,15,17,-1,19,21,23,-1,-1,25,27,-1,-1,29,-1,31,-1,-1,33,-1,-1,35,-1,37,-1,39,-1,-1,-1,-1,-1,-1,-1,-1],"loss_changes":[1.4613554E-1,2.603785E-1,1.5245023E-1,1.2784347E-1,0E0,4.905644E-1,3.0651188E-1,3.4768483E-1,1.4386612E-1,2.305904E-1,0E0,3.0283225E-1,5.147434E-1,1.5578012E-1,0E0,0E0,2.6972383E-1,3.2570112E-1,0E0,0E0,2.4673834E-1,0E0,5.53368E-1,0E0,0E0,1.0337812E-1,0E0,0E0,2.9219514E-1,0E0,4.1166812E-1,0E0,3.9919662E-1,0E0,0E0,0E0,0E0,0E0,0E0,0E0,0E0],"parents":[2147483647,0,0,1,1,2,2,3,3,5,5,6,6,7,7,8,8,9,9,11,11,12,12,13,13,16,16,17,17,20,20,22,22,25,25,28,28,30,30,32,32],"right_children":[2,4,6,8,-1,10,12,14,16,18,-1,20,22,24,-1,-1,26,28,-1,-1,30,-1,32,-1,-1,34,-1,-1,36,-1,38,-1,40,-1,-1,-1,-1,-1,-1,-1,-1],"split_conditions":[1E0,5E1,7.925E0,1.51E1,-5.710117E-2,7.8875E0,8.1375E0,8.6542E0,1.9E1,3E1,-1.7151248E-1,2E1,9.5E0,2.9E1,-9.0221636E-2,-2.1673605E-2,7.72875E1,1.9E1,-9.522639E-2,1.4439918E-1,3.1E1,-1.2814443E-1,9.825E0,-1.5013258E-2,1.0445092E-1,2.9699118E1,-1.4103645E-2,-8.772932E-2,2E0,-5.092087E-2,3.25E1,1.504594E-1,2.9699118E1,1.7477469E-1,5.618496E-2,-2.119233E-2,8.228923E-2,1.4678638E-1,-4.6361793E-2,-5.117296E-2,1.8617097E-2],"split_indices":[5,0,2,2,0,2,2,2,0,0,0,0,2,0,0,0,2,0,0,0,0,0,2,0,0,0,0,0,5,0,0,0,0,0,0,0,0,0,0,0,0],"split_type":[0,0,0,0,0,0,0,0,0,0,0,0,0,0,0,0,0,0,0,0,0,0,0,0,0,0,0,0,0,0,0,0,0,0,0,0,0,0,0,0,0],"sum_hessian":[6.337653E1,1.3012476E1,5.0364056E1,1.1158319E1,1.8541566E0,1.2016526E1,3.834753E1,3.994248E0,7.164071E0,1.1005288E1,1.0112377E0,5.9662223E0,3.2381306E1,2.6752903E0,1.3189576E0,1.0101826E0,6.1538887E0,9.71581E0,1.2894785E0,1.462079E0,4.504143E0,2.0012445E0,3.0380062E1,1.2993661E0,1.3759242E0,4.439577E0,1.7143115E0,1.4769018E0,8.238908E0,2.169427E0,2.334716E0,1.111495E0,2.9268566E1,1.2248181E0,3.2147589E0,4.020696E0,4.2182117E0,1.184096E0,1.1506201E0,1.0981238E1,1.8287329E1],"tree_param":{"num_deleted":"0","num_feature":"7","num_nodes":"41","size_leaf_vector":"1"}},{"base_weights":[5.562357E-4,7.323385E-2,-3.569571E-2,2.7445465E-1,-1.4443884E-2,9.341338E-2,-5.2275825E-2,-1.3269968E-2,3.7862268E-1,8.344571E-2,-2.2311006E-1,-2.649319E-1,3.674243E-3,5.0276095E-1,5.240826E-4,1.7102838E-1,-9.2144735E-2,3.4493953E-2,-4.300607E-1,-1.453551E-1,-1.2808283E-1,3.525125E-1,-4.8433337E-2,2.0989381E-1,-2.7378995E-3,-3.0289575E-2,1.2349767E-1,-1.9736746E-1,-6.3141095E-3,1.20608605E-1,-4.321008E-1,-1.692779E-2,1.4471509E-1,-9.520634E-2,-2.2581436E-2,8.9565866E-2,-7.539321E-2,-3.1135794E-2,1.1433949E-1,-2.0815093E-2,-1.7036301E-1,2.870484E-2,-4.121487E-2],"categories":[],"categories_nodes":[],